0.251224 0.0511694 0.043217 -0.00518773 -0.0396706 -0.107658 -0.139881 0.142508 0.00293224 0.101253 0.0182308 0.34074 0.141657 0.0896689 -0.0778178 0.0717503 0.0629541 -0.0341689 -0.0679473 -0.0867866 0.0637916 0.0336011 -0.00422902 -0.0347602 0.00634207 -0.0370976 0.0455388 -0.164525 0.0819003 -0.00647713 -0.0258157 0.0780354 0.0371487 -0.0687472 -0.0620611 0.0545488 0.0694512 -0.0476608 0.138427 0.0719219 -0.0570132 0.147622 0.168234 -0.0516353 0.0246137 0.0938495 0.0561567 0.0706847 -0.0390389 -0.152032 -0.100288 -0.0211853 -0.164309 -0.00518706 0.0852739 0.00715203 0.0972946 -0.225325 0.0235639 0.0459333 -0.0986002 0.132467 -0.0521022 -0.160201 0.0652796 -0.0953051 -0.0845008 -0.0909396 0.116909 -0.0971364 -0.130289 0.0616559 -0.380081 -0.0416953 -0.0259852 0.0477525 0.067651 0.103509 -0.106617 0.0500387 0.0119356 0.111023 0.0817895 -0.0764566 0.157271 0.179413 -0.0869104 -0.164035 0.0448203 -0.00206199 0.283987 0.069635 -0.0930435 0.0703641 -0.17095 -0.156799 0.0277522 -0.0924259 -0.0401903 -0.0537555 
-0.0628917 0.135003 -0.00455419 -0.0190336 0.0779148 0.012327 0.11963 -0.072391 -0.0332777 0.0100482 0.162186 -0.0167899 0.147722 -0.0676623 0.0815076 -0.124948 0.0624849 0.139174 0.125785 0.073113 0.0466932 0.0804542 0.0221087 -0.0280417 -0.0142688 -0.156746 0.0186637 -0.0462366 0.160276 0.0172927 -0.0693924 -0.0764191 -0.00976292 -0.0784702 0.0140935 0.146967 -0.0360153 0.0946926 0.147578 -0.100897 -0.00374447 0.0765439 -0.103137 0.0187924 -0.0538345 -0.0379989 -0.0754066 -0.0428173 0.0959145 0.0400004 0.105963 -0.00731072 -0.207257 0.114191 0.0475413 -0.1544 0.0827463 -0.067685 0.0107966 -0.0301388 -0.0768474 0.149784 0.0279931 -0.137208 0.022287 0.0478813 -0.0534054 -0.016214 -0.0344272 0.046339 -0.0874527 -0.0262586 0.113016 0.0937305 0.110078 -0.0200655 0.064191 0.128589 -0.0731447 0.0858228 -0.253836 0.103329 -0.125224 -0.016404 0.0402422 -0.0295737 0.01845 -0.00967904 -0.0116177 0.0438319 0.114937 0.151705 -0.0695761 -0.107912 0.0074116 0.0507973 0.0738116 0.0345666 0.0789642 0.155797 
-0.0805239 0.0745571 0.0802899 -0.01578 0.0533255 -0.217741 0.264199 -0.0910282 0.104518 0.0333882 -0.159943 0.0322191 -0.0549053 0.058017 -0.00702158 0.105182 0.0717746 0.0137968 0.0552253 -0.0749187 -0.00596454 -0.0472347 -0.0353811 0.0993303 -0.124343 -0.187181 0.122296 -0.0684998 0.0386019 -0.0414785 -0.0416351 -0.143703 -0.0179983 0.0878784 0.0105939 -0.124916 0.00738237 0.164733 0.0583097 0.0982408 0.0938479 0.0820477 -0.0630095 0.00605317 -0.0251169 0.0587243 0.143073 0.0452791 0.05996 -0.123498 0.0258122 0.139272 0.118824 0.093727 0.135236 0.06608 0.0974313 -0.0564782 -0.013375 0.00378695 0.197661 0.0980265 -0.0348543 -0.146543 -0.10815 -0.0169016 0.0746867 -0.198306 0.103147 -0.116037 -0.0113224 -0.171511 0.166748 -0.118611 -0.0129871 0.045972 -0.0134597 -0.0802923 0.0555515 0.0479855 -0.0158503 -0.237721 -0.0673136 0.264205 0.0190076 -0.000914362 0.00514905 0.104727 0.0230583 -0.196592 0.043512 -0.105516 -0.00240495 0.143729 -0.0726299 0.0308908 -0.0468082 0.232008 -0.0891683 0.0731538 
0.109569 -0.0156783 -0.0576262 -0.0456907 0.0387155 -0.0748167 0.0846215 0.0557461 -0.175952 0.0581974 0.0249411 0.165161 0.0197533 -0.100465 -0.110859 0.0455094 -0.0823284 0.00125569 0.029862 -0.0122051 0.192556 0.0964609 0.104426 0.0714572 0.0197499 -0.139872 0.0924113 0.149912 -0.0588367 0.165543 0.0152052 0.0559632 0.0240279 0.0503065 -0.227502 0.01342 0.0131558 -0.0549819 -0.0155294 -0.00437127 -0.0678091 0.00716594 -0.0603497 -0.0472778 0.176834 0.161972 0.118166 0.0107214 -0.0250576 0.0556449 -0.0938808 0.109717 0.0149764 -0.00962572 0.0598972 0.208121 -0.116201 -0.0715709 -0.0129066 -0.115631 -0.0553189 0.0310355 -0.0371953 -0.12069 -0.0473675 -0.0473376 -0.0432552 -0.0663514 0.0522672 0.100138 0.0477009 0.0585042 0.00915019 0.0344869 -0.120578 0.0373129 0.100439 0.00310263 -0.11717 0.0110768 0.0299302 0.00487198 0.189764 -0.0154805 -0.138692 0.0237388 -0.0215793 -0.0142583 0.00292084 0.132105 0.0291977 -0.0679149 -0.110279 0.211519 0.0340744 0.0312093 -0.0926719 -0.129652 -0.107553 0.123845 
0.0914964 -0.0581005 -0.00646472 0.0858549 -0.0334601 -0.0660662 -0.0480097 0.0476415 -0.144103 -0.0372388 0.141347 0.00978605 -0.0925008 -0.0450365 0.0379258 0.132774 0.133178 0.0601709 -0.103566 0.0410751 -0.0832693 0.110474 -0.0070247 -0.103078 0.100307 -0.114786 -0.134473 0.0704927 0.191777 0.0200868 -0.0821925 -0.0915271 -0.0159286 0.0576637 0.0202756 0.0794718 -0.0922193 0.0695619 0.0253082 0.0634172 -0.0439618 0.00302546 0.105509 0.0890587 0.0861091 -0.0496853 -0.149933 0.121766 -0.0559826 -0.116566 0.256405 -0.033384 0.0458432 0.0427021 0.0119872 0.118766 -0.154183 -0.244264 -0.150361 -0.0609111 0.00234772 0.00882947 0.0209508 -0.197116 0.0832075 -0.0175945 0.165973 -0.164291 -0.163643 -0.0265589 0.00823685 0.025991 0.0966484 0.0163503 0.044023 -0.0996477 -0.123849 -0.126402 0.017483 -0.132736 -0.152246 -0.00144331 -0.0157397 -0.0130724 0.156055 0.0315179 -0.140562 0.0308115 0.0128479 -0.113893 0.0420655 -0.0954026 0.104755 0.0897572 0.00413766 -0.17733 0.0799552 -0.0775121 -0.0191895 0.0364665 
-0.0500221 0.127811 0.104519 -0.0274788 -0.120941 -0.0595445 0.0269392 0.149089 0.0262737 -0.0594525 0.0067514 -0.173882 -0.0132185 0.142818 -0.0221568 -0.0652644 0.0977235 -0.122681 -0.0257824 -0.100595 -0.111791 -0.0403664 -0.0826916 -0.048542 -0.020026 0.107578 -0.135188 -0.00346688 -0.0262887 0.103762 -0.0292375 0.0528131 -0.107137 -0.0478151 0.0626063 0.0463233 -0.221135 -0.0934815 0.0900326 0.0122426 -0.0952337 0.0876899 0.111354 -0.10823 -0.0943454 0.121142 -0.197213 -0.00853192 0.0356862 -0.238029 -0.00692997 -0.134407 -0.0190378 -0.125715 0.0586282 0.0730316 0.0266329 -0.063473 0.0903111 -0.0034951 -0.0952439 -0.0227979 -0.097521 0.254363 -0.0887325 0.137604 0.162314 0.000842195 0.140089 0.160762 -0.0146414 0.0474984 0.00691925 0.022025 0.100805 0.020021 0.0725371 0.108698 -0.0680718 -0.0686562 -0.102098 0.0326167 -0.0617318 0.0921 0.0124668 -0.0855678 0.0318896 -0.0892468 0.0645481 0.0288785 -0.167372 -0.0302211 0.0533769 -0.0773391 -0.0877718 -0.00651675 0.127537 -0.143068 -0.27482 -0.0361405 
-0.0305154 0.0126552 -0.0232524 -0.0176766 0.0924357 -0.0823061 0.153319 0.045501 0.213433 0.103705 -0.186759 -0.0344405 0.0871401 0.15391 -0.0141208 0.0217064 -0.0509496 -0.0678304 -0.0978291 0.115825 -0.0525228 -0.0123903 -0.0564678 0.0483163 0.0522766 -0.0735462 0.0337927 -0.0872042 -0.036155 0.0425526 0.143318 -0.116685 0.204529 -0.027916 0.0365226 -0.0914853 -0.110267 0.120439 -0.0330898 -0.0813874 -0.122898 0.161697 -0.147759 -0.143375 0.0661369 -0.153084 0.108832 -0.0477652 -0.0351652 0.0679259 -0.0846269 -0.0408458 -0.062658 -0.157772 -0.0159583 0.0942357 -0.172186 0.0611112 0.0455051 0.0426188 -0.0849851 -0.00574753 0.240389 0.0150875 -0.0541793 -0.197229 0.0427281 0.11274 0.0868673 0.0086255 -0.0779804 0.0248421 -0.059674 -0.0382413 0.00777959 0.0415029 -0.00529242 0.0686832 0.148852 -0.082018 0.0828154 0.0743685 0.138576 -0.295547 0.0501467 0.00871559 0.150575 -0.163891 -0.126327 0.0144405 0.188613 -0.0122076 -0.129455 -0.146286 0.220868 -0.0635923 0.0114749 0.154542 0.0506515 0.0520357 
-0.106704 0.00621318 0.141691 0.217693 0.00188195 -0.138189 0.0350581 -0.0464829 -0.137892 0.026924 -0.0399881 0.14926 -0.241414 0.00167381 0.0670279 0.0454643 -0.12341 -0.0829479 0.0398799 0.00172945 -0.0166316 0.161769 0.242046 0.0566825 -0.0110283 -0.0383295 0.0637838 0.0159384 -0.167898 0.10449 -0.150112 -0.0448095 -0.11532 -0.15917 -0.13322 -0.0737469 0.0371781 0.159186 -0.0301648 0.0123141 -0.0310111 0.0823593 0.0290773 0.0243758 -0.0028082 -0.0401003 0.0369723 -0.135996 -0.127364 -0.0213007 -0.00878432 -0.121496 0.140009 0.000449909 0.117011 -0.0144819 -0.0428798 0.137125 -0.0276363 0.171179 0.0448947 -0.0500397 -0.0338259 -0.0127531 -0.0393344 0.0959213 -0.0109021 -0.0942356 -0.0513871 0.00600462 -0.0633662 -0.0837048 -0.215578 0.0391971 0.268426 0.00944515 -0.00212273 0.0939589 -0.134401 0.0186931 -0.116656 -0.0142902 0.136416 0.0554276 0.09894 0.0809458 -0.0223125 0.0938576 0.0971303 -0.114726 -0.11112 0.0810675 -0.00154851 0.0458251 0.170705 -0.096182 0.0525189 -0.186791 0.118264 0.0473167 
-0.0122689 0.0649711 0.140415 0.06697 0.0449297 0.142943 -0.112484 -0.0710832 -0.0599443 -0.0581101 -0.0137768 0.148449 -0.0148732 0.0728158 0.0472236 0.106038 -0.0108095 -0.136199 -0.128397 -0.0624498 -0.0694285 -0.183227 0.080381 -0.130524 0.106632 0.0490626 0.136251 0.10468 0.056331 -0.111049 -0.120515 0.0526504 -0.0861247 -0.0978706 -0.0169301 0.0573281 -0.00710051 -0.119019 -0.0459332 0.0257077 -0.0919573 0.0695112 0.0288854 -0.0979638 0.0105781 0.0385741 -0.0553941 0.065509 0.0797334 0.0740356 -0.174808 0.0186124 -0.189466 -0.0467479 -0.0662702 -0.0496647 -0.0290574 -0.0915046 0.0198741 -0.0473064 -0.0182479 0.110712 -0.0764935 -0.14298 -0.179333 -0.0706062 -0.230364 0.0956694 0.000420029 0.0954749 0.0027853 -0.00858416 0.105306 -0.141339 -0.00318697 -0.078195 0.0124569 0.0114831 0.0209622 -0.0435554 -0.046538 0.108653 -0.0929824 -0.162692 0.062428 0.0577946 -0.0113879 0.0101967 -0.0658346 0.098227 -0.143571 0.261705 -0.0518452 0.0225097 0.0555287 -0.0286823 0.21945 0.00799144 -0.245673 0.0935709 
0.185755 -0.14432 -0.161444 -0.0541637 -0.0239477 0.0606768 0.0282476 -0.0974091 -0.098126 -0.127208 0.0375366 0.140307 -0.114794 -0.0842121 0.0946167 -0.0121234 -0.116686 0.0820978 -0.0307306 0.173234 0.05989 -0.0221242 0.00572266 -0.108907 -0.0513979 -0.0242633 0.0345763 -0.0956931 0.0220261 0.16969 0.119251 -0.125134 0.0568682 -0.120166 -0.143953 0.265045 0.0602105 -0.178245 -0.0708447 -0.110606 0.0435852 0.0425053 -0.21781 -0.0487151 0.0585044 -0.170859 0.0989422 0.0463309 -0.0337831 0.0202624 0.261464 0.154102 0.194377 0.021129 0.00970457 0.00123672 -0.128099 0.0465637 0.0212562 0.00507909 0.0773761 -0.239708 0.00553363 -0.0585377 0.0400225 0.108443 -0.124521 -0.0813078 0.0133452 0.142198 -0.121201 -0.0519492 -0.0106715 -0.14468 0.0298581 0.0205463 0.116784 0.01634 0.0681538 -0.0823706 -0.0834548 -0.0161455 0.11513 -0.210907 -0.0321515 -0.0675109 -0.106551 0.0184394 0.0566881 0.0173951 -0.0980472 0.113407 -0.0987655 -0.0137795 0.135496 0.052207 -0.0702835 0.104846 -0.103334 0.0994111 
0.040011 -0.0709845 0.163195 0.117645 -0.00817473 -0.0434411 -0.122937 0.0903098 -0.0450103 -0.0347901 0.121339 -0.220891 -0.0168761 -0.127952 -0.023515 0.0296112 -0.031164 0.0182104 0.0632432 0.0725858 -0.0780356 -0.124468 0.239655 0.104482 -0.054572 0.050967 0.123265 0.114377 0.11565 -0.0381435 -0.140142 0.17131 0.151692 -0.186434 0.180866 -0.000412568 -0.0210688 0.106699 -0.114924 -0.0962604 -0.0512685 0.00377138 -0.0730534 -0.0995392 0.0953942 0.108147 -0.0557631 0.0578997 -0.0990039 -0.0992222 -0.038859 0.0687867 -0.0349782 -0.0396823 0.312322 -0.114048 0.114055 -0.092286 -0.0262546 0.0146828 0.0476982 -0.0567505 -0.0888581 0.308449 -0.00767998 -0.129881 -0.121304 0.0383797 0.0486878 -0.158929 -0.00638451 -0.081513 0.121237 0.150351 0.0361393 -0.113457 0.0559 -0.0336994 -0.0940098 -0.0166151 0.0608579 0.0702881 0.0836026 0.0819378 -0.199798 -0.0818013 0.0421448 0.0298811 -0.108761 -0.0931082 0.0865445 0.183962 0.121666 0.162042 -0.0638099 -0.026588 -0.0573427 -0.0567772 0.0570891 -0.0760446 
0.0961886 -0.0486401 0.176711 0.105001 0.092988 0.243652 -0.0536484 -0.0432029 -0.0051046 0.16373 0.0961009 -0.0176465 0.158665 -0.0557879 0.00551239 -0.0218028 -0.00202154 0.0197524 0.0514071 0.03451 0.0359658 -0.029423 -0.011141 -0.0956655 -0.0414123 0.130936 -0.0844918 -0.131084 0.146767 0.0467572 0.0636412 0.019531 -0.164256 -0.0893485 -0.00730209 0.119047 -0.187513 0.0231159 0.0604547 -0.0582046 0.18047 0.103247 0.023929 0.191438 0.0170611 -0.169559 -0.00403187 -0.0760028 -0.0888291 0.0489801 -0.10168 -0.14152 0.105754 0.186395 0.186379 -0.109948 0.0763001 0.047472 -0.258582 -0.00718207 -0.0295067 -0.0474927 -0.0322109 0.00314677 -0.0456551 0.0980291 0.0288159 0.0239827 -0.0306224 0.10195 0.15241 -0.00120919 -0.0135853 -0.114802 -0.0262036 -0.00100288 0.0455238 -0.12467 -0.090752 0.0472919 0.0367495 0.21572 0.0646162 0.0668813 0.0158011 -0.0289147 0.15899 0.209731 0.058204 -0.0385068 -0.00326924 0.118196 0.073033 -0.0703217 0.00865693 -0.120486 -0.168943 0.110037 0.0307916 0.0398696 
0.152099 -0.0839988 -0.157361 -0.0476924 -0.0861914 0.0898825 0.161396 0.0237207 -0.050126 -0.195121 -0.00996788 0.231475 0.00110997 0.0751313 -0.0998417 0.0611473 0.0143415 -0.101474 0.14313 -0.0827046 0.14644 -0.00264279 0.0284571 0.0321182 -0.161724 0.130099 0.0422106 -0.0569927 -0.0595894 0.06753 -0.0763032 0.0749092 0.222948 0.0376173 0.00916191 -0.205793 -0.000827867 -0.0181874 -0.0415979 0.0881423 0.133339 0.0881117 -0.0699906 -0.060801 0.00386021 0.0802691 -0.198087 -0.0055403 -0.0700029 -0.0595027 0.0137538 0.320962 0.0419595 0.0154477 0.052047 -0.189952 -0.0695905 -0.121583 0.113956 -0.0997235 -0.135573 0.1043 0.145891 -0.0202857 0.107216 -0.0571145 0.0598333 -0.184951 -0.292392 -0.0966906 -0.0447315 0.0738942 -0.00418829 0.0284094 0.112241 0.0963634 -0.0100531 -0.0130053 -0.0981427 -0.160353 -0.100245 -0.00928242 -0.0382118 0.0613088 0.120494 -0.0189152 -0.0571524 -0.110664 -0.0653833 -0.0530209 -0.00133515 -0.17233 0.0750329 -0.100192 0.107595 -0.0637577 -0.0257158 0.129848 -0.0993868 0.165615 
0.0653803 -0.14132 0.0886635 -0.00611307 -0.14537 -0.121326 0.0975582 0.0560478 0.0875834 0.111199 -0.160577 0.0387056 0.0194578 0.142074 -0.10355 0.0281507 -0.0473992 -0.0423771 0.00567052 -0.0393238 0.0280543 -0.0611759 0.0928874 -0.182672 -0.172697 0.0415795 0.0996227 0.012539 0.14669 0.00203494 -0.108462 0.206009 -0.210774 0.0475516 0.0769952 0.100672 -0.0141363 -0.0265667 0.0788142 0.0558654 0.100053 -0.0861613 -0.02091 0.0535425 -0.0853249 -0.0805895 0.132389 -0.0756757 0.0856243 0.203991 -0.0651896 -0.0548769 0.0510175 -0.0626071 0.165682 0.0103235 0.142769 0.038543 0.0534259 0.0724238 -0.00288801 -0.0904277 -0.0515782 0.0425205 -0.0269988 -0.104565 0.0499824 0.16104 0.183756 0.0745342 -0.0878988 0.042003 -0.0533084 0.0947345 -0.115021 -0.177722 0.0140719 -0.0210755 -0.0552399 0.161388 0.0884963 0.0596129 0.0498842 0.0213349 -0.0387517 0.0651475 -0.0076078 -0.11242 0.000103378 -0.0366561 -0.0518571 0.0453602 -0.162055 -0.154919 0.0809174 -0.0284098 -0.068415 0.251935 -0.0567342 0.0028596 
-0.131144 0.0368319 -0.203271 0.0102722 0.0607791 0.0532089 0.0476516 -0.0407783 -0.0356482 0.018586 -0.0964021 -0.0796427 -0.0866048 -0.0500916 -0.163103 -0.140728 0.0912923 -0.0155207 -0.0909584 0.158057 0.050253 -0.168069 0.0843468 0.0885899 0.0878064 0.133435 0.216894 0.185042 0.0504959 -0.128351 -0.0222193 0.00896686 -0.118817 0.0328906 -0.0481427 0.00568822 -0.0725843 -0.159592 -0.00308693 -0.012061 0.03807 0.159966 -0.108254 0.0730366 -0.0518192 0.148804 -0.0786997 -0.199035 -0.0561354 -0.00467366 -0.0314226 0.123582 0.143984 0.0104092 -0.218816 0.0707136 -0.127494 -0.0241761 0.0291049 -0.0473414 -0.0929623 0.141136 -0.0760118 0.105796 0.0963485 0.0918705 0.116308 -0.0118914 -0.129815 0.152695 0.0678022 -0.195889 -0.00920359 -0.0810051 -0.112977 0.0962746 -0.0739809 0.178166 0.0501284 -0.00838643 0.0529423 0.0216624 0.0535864 0.129026 0.0118609 -0.0607637 -0.0773398 -0.154436 -0.0931421 -0.150921 -0.0231815 0.075535 0.117487 -0.0658866 -0.0247512 0.109607 -0.104911 0.196179 0.0468028 -0.0884344 
0.0124812 0.0361919 -0.0638993 0.0601932 0.171944 -0.107188 -0.211825 0.192155 0.0326585 0.0797818 -0.00438036 -0.120061 -0.134283 -0.0218681 -0.0886012 0.105867 0.109601 0.10759 0.131395 -0.107035 -0.241223 -0.0426532 0.000501099 -0.0621694 0.165191 -0.0268521 0.00159817 0.105502 0.0805688 -0.00583879 0.242759 -0.0389167 -0.0486574 -0.166485 0.086168 -0.0984004 -0.0706007 -0.0315419 -0.0828872 -0.0177494 0.0307862 0.0194943 0.0488865 -0.116594 0.123004 -0.0432844 0.00707975 0.0882657 -0.130286 0.0654419 -0.000283853 0.113977 0.176443 -0.0417045 0.0574323 -0.0376782 -0.00475837 -0.0946588 0.0885004 -0.124788 -0.144594 0.00241785 0.0222475 0.0391637 -0.220224 0.0181704 0.00438262 0.100669 -0.0612307 0.0562973 0.128236 0.134626 -0.135706 0.139557 -0.111843 0.0677227 -0.0898709 -0.124587 -0.146699 0.18584 -0.00688537 -0.0983973 0.175331 0.00153404 -0.172368 0.1075 -0.121473 -0.0808926 0.14391 -0.0699409 0.093877 -0.16081 -0.0316981 0.11359 -0.061717 -9.81116e-05 0.00857562 0.0303528 -0.0695465 -0.0219407 
-0.0477725 0.0516153 0.0415919 0.0833519 -0.167874 -0.0444963 -0.0880849 0.0183907 -0.111851 0.0398999 0.0534869 0.0629053 0.124033 0.190074 -0.0654173 0.0191395 -0.0111263 0.0685458 -0.0598415 0.0773798 0.00572653 -0.0764755 -0.0595 0.168953 -0.0366742 0.128376 0.0185157 -0.0260064 0.00861279 -0.100294 -0.066363 -0.0279796 0.184676 0.0126891 0.109557 -0.138346 0.02468 0.10188 0.105502 0.0933825 0.0494976 -0.113041 0.0650032 0.186156 -0.00295375 -0.110459 -0.122484 0.0588586 0.00954426 0.00887923 -0.154974 -0.00440787 -0.0403781 -0.000685206 -0.0334254 0.111851 0.175125 0.000357976 -0.0934647 -0.105263 -0.146139 0.02496 -0.00984239 0.0517542 -0.179307 -0.019462 -0.0529331 -0.0156518 -0.216441 -0.0053067 -0.0949084 -0.02831 -0.0789797 -0.0385395 0.0135466 -0.125176 0.066714 0.136832 0.0380531 -0.0146033 -0.114346 0.0560955 0.101044 -0.224301 0.209255 -0.11779 -0.066546 -0.0134443 -0.0112049 0.033144 -0.0211161 -0.311029 -0.0161446 0.12446 0.0200393 -0.174957 -0.0952564 -0.0170321 -0.104314 -0.0492835 
-0.0753916 0.0714304 0.0433075 -0.100092 -0.295796 -0.1319 -0.0886905 0.0352304 -0.0257064 -0.088142 -0.00466492 -0.139716 -0.0288807 0.151884 -0.00615168 0.116764 -0.0249325 0.00295122 0.0460124 -0.00733367 0.0781714 0.0719825 -0.0218953 -0.0242489 0.0279307 0.134172 0.0318631 -0.0998631 0.155255 0.21142 0.121113 0.0577054 0.0880338 -0.21319 0.0700251 0.249501 0.00945579 0.0589818 0.139639 -0.0299704 -0.0212546 -0.00947399 -0.00772096 0.159812 0.0157985 0.112716 0.0277454 -0.106055 -0.0514658 0.0357108 0.0300715 -0.0433287 -0.0101624 -0.155447 -0.130221 0.19892 -0.0402337 0.0231538 0.0654261 -0.224743 -0.0375705 0.00640434 -0.00149835 0.0761533 0.0518604 -0.0632314 -0.0758722 -0.0609314 -0.134297 -0.06933 -0.135684 -0.0728458 0.0656531 -0.0564636 0.0546425 0.00610705 -0.130645 0.0118244 -0.134547 0.00656812 -0.257007 -0.0216243 -0.120322 -0.0187967 0.0343279 -0.0694015 -0.0372486 -0.0555768 -0.0965143 0.0233296 0.0295895 0.0763549 0.18113 0.0502879 -0.0341592 -0.0500673 -0.0418679 0.0981295 -0.0166123 -0.0701156 
-0.0880611 -0.109439 0.00230559 0.0238632 -0.00837045 0.0730209 -0.0411578 0.0981873 0.0784522 -0.0452621 0.151749 -0.0858866 -0.121203 0.108931 -0.0418805 -0.0579648 -0.0356627 -0.0583301 0.0377894 -0.0140783 -0.0996676 -0.028911 -0.11704 0.0685839 -0.155425 0.0567142 -0.0833122 -0.073277 0.177098 0.00904126 0.0711171 -0.0521652 -0.284552 -0.0690036 -0.0578284 -0.108888 -0.078257 -0.0518039 0.0467624 -0.0629241 -0.0842749 -0.00978382 -0.164416 0.146895 0.200924 0.0173394 0.0894147 0.0972089 -0.01331 -0.0347693 -0.0135635 0.000469963 -0.0704424 0.0282546 -0.114599 0.0263538 0.0276696 -0.107946 0.0615363 0.104834 0.00256399 0.0254608 -0.166269 0.114934 0.0564167 0.278507 0.0363246 0.0666633 0.00253342 -0.150067 -0.0465095 -0.000280776 -0.225659 -0.0749342 -0.0632863 -0.00640091 0.0677659 0.168275 -0.136242 0.147467 0.0877061 -0.0784173 -0.0641109 0.0097351 -0.0553954 -0.0561452 -0.0262718 0.17661 -0.0166605 0.0253626 0.0878358 0.0695913 -0.0366851 0.114624 0.0252972 0.0839625 -0.0286955 0.0257655 -0.100436 0.0506157 
-0.0930967 0.035975 -0.0654351 -0.0321377 -0.111109 0.181366 0.00761907 0.130678 -0.0680217 -0.0243791 0.0833986 -0.076122 -0.033639 0.0204699 -0.0802401 -0.131845 0.11941 -0.0274387 0.0322379 0.0683614 0.0781374 -0.211519 -0.0583513 0.0606501 -0.210119 0.00948975 0.068999 -0.0162687 0.0613781 0.0757091 0.110669 -0.011906 0.0921597 -0.108288 0.0993628 0.0815704 0.13131 0.0167599 -0.0201875 0.0113997 -0.133883 -0.0221545 -0.0470362 -0.0133815 -0.102396 -0.067179 0.216902 -0.0436672 0.00142621 0.10587 0.0730707 -0.114576 -0.0463955 -0.11527 0.120253 -0.0277686 0.137311 -0.00652172 0.120488 0.0640131 0.13593 -0.140892 0.126834 -0.00961928 0.122577 -0.128275 -0.0741697 0.118579 -0.00442247 -0.0954853 -0.0142878 -0.0189555 -0.0524814 -0.00571276 0.0734413 0.102153 0.086273 -0.0415305 0.109752 -0.0135779 -0.0200041 -0.093488 0.108091 0.187792 -0.0185866 -0.128613 0.0482371 0.0420545 -0.072577 -0.136508 -0.132991 -0.186744 0.0403282 0.0760119 -0.129989 -0.0748074 0.0836108 0.165821 -0.069103 0.19261 
-0.0834544 0.041755 0.0373951 -0.161556 0.0304641 0.0493105 -0.119137 -0.0268402 -0.0766453 0.0243286 0.0750441 -0.0523874 -0.0330399 -0.0286995 0.0127627 -0.128354 -0.135707 0.171323 -0.172705 0.00337594 0.115362 -0.0578704 0.0846402 0.118436 -0.0335174 -0.23041 0.137042 -0.0565356 -0.0711252 -0.0120791 -0.0433298 0.0487193 0.0213101 0.185063 0.0467045 0.0759501 -0.172199 -0.175747 -0.186031 -0.0319697 0.174345 -0.0426907 -0.088849 -0.0426834 -0.024755 -0.0636895 0.0598383 -0.112027 0.131299 -0.121401 -0.153222 -0.115409 0.140539 0.0352559 0.0473215 0.13041 0.126288 0.0580206 0.0742819 -0.0520233 0.0657359 -0.0466082 -0.0605715 0.0809105 -0.0541037 0.15085 -0.0415789 -0.0783909 -0.115863 -0.0383761 0.0968378 -0.00308683 0.111713 0.149241 0.104193 0.00437267 0.0461875 -0.0495779 -0.222673 -0.0464982 -0.0765376 -0.0781705 0.0682829 -0.0536951 0.21747 0.0387513 0.127018 0.00817181 0.0552369 0.111901 -0.0428133 0.023425 -0.0810106 0.110634 0.0395959 -0.037521 0.184657 -0.0462175 0.0796915 -0.135023 
0.0808602 -0.126755 0.064507 -0.0181849 0.0520041 -0.0649982 0.0313316 0.142337 0.0159595 -0.0737046 0.0644099 -0.0700211 0.289175 0.0770272 0.0184506 0.0803149 -0.0940294 0.0303478 0.113544 0.10031 -0.130783 0.113763 0.0898107 0.0363459 -0.0575592 -0.000372085 -0.0989506 0.091826 -0.185953 -0.0830577 -0.0481882 -0.106011 0.271095 -0.101551 -0.0676604 -0.0848533 0.104072 0.0209713 0.0428863 0.040179 0.0335559 0.00684675 0.123014 0.139956 0.204228 -0.161113 -0.0686378 0.0402926 -0.00965658 -0.0266399 0.0805741 0.0225073 -0.0686867 0.187158 -0.0495362 -0.0510651 -0.223146 -0.1153 0.037669 -0.127693 -0.0957213 -0.0487322 0.012266 0.0924753 0.0448469 -0.124741 -0.0272047 0.0958666 0.0235619 0.0830928 -0.0061924 -0.0101135 0.0370918 -0.0773327 -0.0260821 0.0610532 -0.21382 0.0595399 -0.263369 -0.101652 -0.000336263 0.0937207 -0.243526 0.00183632 -0.0385242 0.0950747 0.0777778 0.0452842 -0.00237654 -0.114027 -0.124148 -0.0484421 0.0210024 0.135332 -0.125348 -0.14175 0.17726 0.0445408 0.0587511 0.0158077 
-0.0101473 -0.0116448 0.111561 0.000230098 -0.00142586 -0.0239462 -0.0531227 -0.0626605 -0.0213654 -0.06322 -0.0511753 0.0136464 0.0791142 -0.148187 -0.084564 -0.0718162 0.0505315 0.0293912 -0.119462 -0.0857529 -0.0319518 -0.0866298 -0.0248646 0.0165511 -0.00396823 -0.0714416 -0.125081 -0.0848946 0.0515935 -0.050925 0.0976061 0.0200337 0.0940995 -0.0743833 0.0953945 0.0455175 -0.0530211 -0.101713 -0.251541 0.119817 0.0351179 0.159258 -0.160313 0.067848 -0.0684952 -0.00569493 -0.00843025 -0.174654 0.0804927 -0.0526417 0.0587152 0.00657356 0.157713 0.0782612 0.14621 0.0461008 -0.079306 -0.113165 -0.192545 0.110058 0.0520455 -0.100378 -0.232255 0.136069 -0.169305 0.0479718 0.0899889 0.0344774 0.00231656 0.153247 0.118887 0.126019 0.02177 -0.140507 -0.0682912 0.162785 0.0238061 -0.0440042 -0.0488329 0.0469667 -0.0414699 -0.00545184 0.0906536 -0.102009 -0.0802275 -0.0319795 -0.00969377 0.218301 -0.0530311 0.111614 -0.0681793 -0.0531472 -0.0911306 -0.145169 0.080278 -0.085407 -0.0602654 -0.162037 0.00245218 -0.227161 
0.0727199 -0.0155341 0.0204643 0.05193 0.0279843 -0.0657096 0.0117195 -0.164767 0.192257 0.0385957 0.0397224 0.15911 0.00888256 0.00927573 0.0379912 0.0789721 -0.068385 -0.113916 -0.00967341 -0.282425 0.0762523 -0.144249 0.0345599 -0.0718873 -0.089903 -0.0470848 -0.0037575 -0.162222 -0.127133 0.0133598 0.0389796 0.110392 0.0804516 0.0250623 -0.036297 0.00822098 0.041729 0.0425594 -0.235488 -0.160901 -0.0966966 0.10441 -0.0632446 0.0194723 0.0220041 0.0613873 0.00764792 0.295566 -0.0693099 0.155317 0.0460902 -0.0143388 0.131448 0.13753 0.117478 -0.0814165 -0.00102189 -0.127073 -0.0326106 -0.082533 -0.0258144 -0.182714 0.0426986 0.121625 0.141123 -0.108819 0.0629781 -0.00673077 -0.0291324 0.108322 0.137499 -0.0741377 0.0702551 0.0585466 0.00886667 -0.0213595 -0.149241 -0.0102968 0.0686616 -0.175488 -0.0577939 0.0459098 0.0793048 0.0323218 0.0785477 0.0289061 -0.0795615 -0.0946882 0.0951839 -0.228154 0.0572066 0.0427677 0.0278688 -0.00692918 -0.0922269 0.0778763 -0.0444465 0.103153 0.194681 0.0386745 
0.0470441 -0.0805276 -0.1172 -0.179651 0.0103751 -0.0179257 0.108321 -0.139506 0.153333 0.111477 0.125449 -0.026233 0.0115135 -0.114111 -0.0921711 0.062378 0.030474 0.092502 -0.000464587 0.00409549 -0.132347 0.085784 0.0310174 0.0640018 0.0173214 0.0119077 -0.127164 -0.226521 -0.0185985 -0.12141 0.0276615 0.039972 0.0409938 -0.0854812 -0.0354371 -0.172316 0.0707156 -0.0373079 0.0498484 -0.0162933 -0.168454 0.170197 -0.0759596 -0.0898334 -0.0483484 -0.109911 0.0135115 -0.00632267 0.00389227 0.025037 0.0687528 0.0649424 0.128927 -0.0291225 0.0257548 0.0156352 -0.0236932 0.100918 0.0933125 -0.186465 -0.0692015 0.0903371 0.156717 -0.150577 0.0487838 0.105433 0.048731 -0.107542 0.0720776 0.346788 -0.0934691 -0.0009289 0.1197 -0.147481 0.018769 0.0693582 -0.0664365 -0.0853605 0.0514588 -0.0698652 0.00237065 -0.0620521 -0.193202 0.140649 0.0493101 0.168122 0.112307 -0.0911857 0.227731 0.00113025 -0.0363148 0.0205521 -0.0915947 -0.166384 -0.137573 -0.0540897 -0.0742988 0.0671409 -0.183983 0.0107506 
-0.116094 0.00645832 0.0703904 -0.37882 0.0975344 -0.0830335 0.0492573 -0.0265319 -0.0104076 -0.0980642 -0.0637617 -0.0405373 0.0680791 0.0203531 -0.159803 -0.0378024 0.170029 -0.190809 -0.0122309 -0.170983 0.0490228 0.168058 0.047117 -0.0738658 0.0698531 -0.0387139 0.189945 0.0816662 -0.0469185 0.0368731 -0.0878523 0.0256497 0.174111 0.00975721 0.00263031 0.0161575 -0.0675388 -0.155128 -0.0274647 0.129021 0.0680853 0.0476273 0.0102838 0.0524359 0.177226 0.10672 0.050821 0.0460397 -0.128048 0.0147072 -0.102605 -0.0489545 -0.157307 0.16227 -0.00820217 0.157969 0.00468641 0.116201 0.044795 0.16498 0.0510218 -0.0610906 -0.146128 -0.0491851 -0.000213707 0.0495997 -0.209982 -0.0108823 0.0826811 0.186877 0.0400805 0.0235954 0.189928 0.0202059 -0.0463877 0.0923506 0.0858117 0.0758907 0.0602102 0.115419 0.212583 0.106513 0.0619335 0.0780591 0.0248561 0.0561742 0.209327 -0.0578698 -0.183994 -0.05933 -0.0152683 -0.0286142 -0.0681966 0.0613488 -0.0943038 0.056327 -0.0496735 0.171927 -0.0698714 -0.00823678 
0.0115854 -0.0403493 -0.0757696 0.155857 -0.0465344 0.0142614 -0.189644 -0.0158447 -0.120144 -0.0690526 0.128202 -0.0370032 -0.11739 -0.04055 -0.0320132 0.0441915 -0.0431395 -0.0980034 0.16757 0.267594 -0.0717553 -0.0485905 0.0763641 -0.155231 0.00196289 -0.0142114 -0.101103 -0.0368421 -0.0844991 -0.0368544 0.136095 0.0151469 -0.104153 0.00480273 -0.196263 -0.124801 0.0219536 0.182591 0.232351 0.118506 0.0242181 -0.073803 -0.058881 0.00698008 0.0117348 -0.0473271 0.0222542 -0.0563984 0.0690192 -0.063918 0.133909 -0.0300683 0.21954 -0.0344678 -0.106786 0.168899 -0.0405174 0.0795974 -0.0284195 0.0144731 0.135162 -0.0372269 0.101696 0.114231 0.0277661 0.184578 -0.079576 -0.0705743 -0.17652 0.132781 -0.00991042 0.117132 -0.232994 -0.0365417 -0.0249292 -0.00873564 0.129241 -0.000142083 -0.0263746 0.0264728 -0.207932 0.0223902 -0.0983543 0.0487447 0.0650889 0.159795 -0.0614913 0.12633 -0.0255817 0.0429963 0.0435339 0.0347855 -0.0932131 0.217414 -0.0250107 0.0197034 -0.128784 -0.200286 0.00824203 -0.0147706 
0.125044 0.124129 0.112875 -0.0199851 0.0712574 -0.0456416 0.0972035 0.146 -0.06271 0.116393 0.0250813 0.0406669 0.0216136 0.0541175 0.0648242 -0.11688 -0.120746 0.0438993 0.056464 -0.0936169 0.00637366 -0.135289 0.0484456 0.0166659 0.0949839 0.0135237 0.125659 -0.117778 -0.0209936 0.0111263 0.0222749 0.0360961 -0.148855 -0.0669068 0.0294154 0.0451271 -0.192075 0.0726911 -0.0172038 -0.00631704 0.0324499 -0.146898 -0.081528 -0.100681 -0.0556277 0.0477212 -0.0829259 0.0841798 0.017893 -0.0455503 0.106843 0.00853739 0.0057623 -0.000919528 0.0973889 -0.111532 -0.05103 -0.119178 -0.145092 0.0266553 0.0753008 -0.07943 0.019376 -0.0321711 0.159352 -0.0281939 -0.0587705 -0.0361016 -0.179513 -0.190221 0.0508204 0.193786 -0.114731 -0.155342 0.0729217 0.140734 -0.0212766 0.0176931 -0.222863 -0.207609 -0.00681051 0.190392 -0.0429965 -0.12045 -0.127192 0.0747146 -0.0335215 0.014313 0.324946 0.121779 0.0884476 0.0747409 -0.0585492 -0.105845 0.170675 0.0884542 0.0303215 -0.19939 0.185588 -0.0335981 
0.091884 0.0684748 -0.0440405 0.119898 0.0314164 -0.0331753 -0.0246102 -0.00828661 0.0833664 -0.0964655 -0.102025 -0.0704886 -0.0416403 0.136953 -0.0182405 -0.030031 -0.0684745 -0.245367 0.0878359 -0.124806 -0.124019 -0.00621092 -0.0838478 0.0377479 0.0049217 -0.160577 -0.107792 -0.0313831 -0.141395 -0.0398892 0.0286841 -0.0320765 -0.0442787 -0.0693523 0.132047 0.0349814 -0.0449216 0.0709876 0.0565039 -0.0486684 0.0169529 -0.0693964 -0.0893595 -0.0977004 -0.0568068 -0.129452 0.0832658 0.0454829 -0.0190519 0.0606166 0.179078 -0.0439336 0.125122 -0.0495598 0.0530525 -0.077082 -0.007886 0.114626 0.176958 -0.0962617 -0.0519168 -0.0902499 -0.0781629 0.0416272 0.159507 0.106772 0.00417037 0.145505 -0.0119254 0.0656003 0.211392 0.0154669 -0.15577 -0.130781 -0.120804 -0.135812 -0.0772576 -0.018356 0.0149741 0.0375746 -0.0274511 -0.0492033 0.122268 -0.101705 0.12195 0.00826095 -0.0346785 0.00922224 -0.225192 0.0409716 0.0783151 -0.0127509 -0.0866614 -0.140342 -0.0997041 0.0387532 -0.127775 -0.102228 -0.0109206 -0.186043 
-0.174399 -0.0102422 0.111811 0.0691194 -0.0932631 -0.088883 -0.113351 -0.0943789 0.153813 -0.0916484 0.0972487 0.00973062 0.0040901 0.0631581 -0.0306458 -0.0381233 0.0472945 -0.00838998 0.0965709 0.00828502 0.0370335 -0.049453 -0.103441 0.0710906 -0.0617072 0.167697 0.120938 0.0228663 -0.0603987 0.094826 -0.0365773 -0.076252 0.00514646 -0.0657238 0.0964477 0.130153 -0.0770929 0.127235 0.0288891 0.111689 -0.0195552 0.111491 0.111692 0.130548 0.126953 -0.0486302 0.127697 0.0667661 0.0302104 -0.0142274 0.105384 0.0337442 -0.0054947 0.000577022 0.0205546 -0.0672762 -0.152554 -0.114251 0.17172 -0.163749 -0.011567 -0.000104159 0.0939554 0.0508992 0.0940955 -0.00995414 0.0663831 -0.0462244 -0.107295 0.00796054 0.0233368 0.0494633 0.0618527 -0.115609 0.0171774 -4.40126e-05 -0.089454 0.0244686 -0.0607452 -0.036374 -0.218748 -0.0151656 0.0462136 -0.045175 0.0430949 -0.0836169 0.0826354 -0.068757 -0.0604737 0.111758 -0.0844379 -0.0604115 -0.0210588 0.0398492 -0.105928 -0.0256056 0.0534504 0.0283434 0.140042 0.105367 
0.055827 0.121936 0.0109623 -0.0116729 -0.0330701 -0.0546912 -0.0793167 -0.0692221 0.050989 0.10116 0.00254932 -0.0755789 -0.0655534 -0.0661951 -0.0662499 0.119488 -0.021858 0.092949 -0.0290555 -0.0268806 -0.142054 -0.0122303 0.0626784 0.222886 0.132814 -0.00808632 -0.0889897 -0.110156 -0.0414564 -0.0633827 0.0629614 -0.0384883 0.112136 0.219244 -0.0101462 -0.105743 -0.0966491 0.151379 -0.18629 -0.0371818 0.12566 -0.0491559 0.0878318 0.0387061 -0.00500865 0.0155467 -0.044953 0.032732 -0.00594924 0.0303632 -0.0256071 -0.0248774 0.0739218 -0.118403 0.0366043 0.016989 -0.186565 0.0381649 0.0336051 0.0963008 0.0178513 0.0346099 0.0687411 -0.0821552 0.16267 -0.021152 0.000321371 0.0806752 0.0193922 -0.109605 0.0298261 0.157492 0.232307 -0.0938497 -0.0209395 0.0617968 0.0636135 0.190197 -0.159869 -0.00826684 -0.0107527 -0.048099 0.124669 -0.0846772 -0.029222 0.0893728 0.0332323 -0.100771 0.0933039 0.159469 -0.0579279 -0.078791 -0.0616775 -0.000257299 0.0530036 -0.0545364 -0.0252428 0.0970278 -0.0651788 0.0604673 
0.00735174 0.0147857 0.00695088 -0.164406 -0.132479 -0.0997937 -0.108401 0.059802 -0.0992922 0.12026 -0.024964 -0.199684 -0.0574684 -0.168821 -0.0276238 -0.0728795 -0.0123603 0.0658193 0.0722317 -0.0565382 0.041919 -0.147531 -0.0322199 0.21672 0.0688002 -0.157465 -0.060344 -0.180136 -0.148702 0.0154834 -0.100296 -0.0454497 0.0662594 0.100595 -0.0619162 0.0515351 0.0297414 -0.0661499 0.0125568 0.00167524 -0.0723429 0.0184425 -0.0154131 0.0242168 0.0108934 -0.0169921 0.174639 0.223694 0.00408474 0.0699257 0.0862831 0.0950895 0.0979413 -0.205543 -0.127313 -0.129763 -0.0434889 0.0925724 0.0632682 0.0165323 -0.103931 0.056889 -0.124455 -0.054133 0.125451 0.0511179 0.0403408 0.0228921 -0.0275246 0.119364 -0.101096 0.129833 0.181967 -0.0649752 -0.015823 0.160045 0.0529088 -0.0494012 0.0400698 -0.120728 0.0996878 -0.126101 0.183671 -0.00887619 0.139865 0.0636155 0.0263907 -0.0414249 0.0320469 0.00595587 0.0193196 -0.130265 -0.0811443 0.236341 0.0773534 -0.0303043 -0.139695 -0.0160733 0.149563 0.0469841 
0.0624463 0.0282009 0.128224 -0.0791924 -0.0461189 -0.00130081 0.0318064 0.069127 -0.0531693 0.0623601 -0.00206591 0.00807427 0.0488733 0.0239376 -0.118632 -0.0746188 -0.103331 0.0450999 -0.176307 -0.0283886 -0.112924 0.0665365 0.125897 0.0751406 -0.0464788 -0.0199769 0.0425429 -0.0499283 0.106695 0.00084851 -0.0102872 0.0160062 0.128739 0.0586219 0.031155 0.0957543 -0.234627 -0.0783265 0.104373 0.059108 -0.129776 -0.125758 0.105563 -0.0490907 0.0171741 0.126037 -0.0671837 0.135245 0.140612 -0.0170202 -0.05394 -0.196387 0.0642047 0.0394136 -0.0237181 -0.0186343 -0.0263283 0.152289 0.111957 -0.190308 -0.0776629 -0.0827248 -0.233457 0.0129124 0.112773 -0.0561616 -0.102252 -0.00509041 0.00361824 0.143523 0.0222036 -0.0208388 0.225861 0.0143842 0.0440433 -0.122391 -0.173821 -0.0422891 -0.0312066 0.0743189 0.139565 0.122142 -0.113546 0.0113317 0.155207 0.0714649 -0.00685111 -0.0277484 -0.213374 0.0589701 0.0137287 -0.107567 -0.0985149 -0.0656498 -0.0625211 -0.267474 -0.047495 -0.0372503 -0.105161 0.015085 
-0.043154 0.0524928 0.0709429 -0.0631206 0.0675809 -0.0176931 0.0249791 0.00402082 -0.0387223 0.0392489 0.263914 0.138278 -0.0261577 0.18272 0.0793183 0.0576719 -0.0258704 -0.00614439 0.00599952 0.119122 0.0825553 0.033163 -0.0573507 0.0578976 -0.0866565 0.062337 0.046499 -0.150125 0.0283071 0.246212 0.110301 -0.0950414 0.125446 0.0495994 0.0109166 0.17004 -0.0795767 -0.042265 -0.0565832 0.125799 -0.183785 0.0335891 0.143118 -0.0397984 0.0721123 0.194872 0.0661243 0.0700905 0.128386 0.0633825 -0.064106 -0.101648 -0.113741 0.162894 0.191355 -0.0180105 0.192128 -0.0774137 -0.0705667 0.141725 0.0742059 0.029868 -0.0752839 -0.0292419 0.104856 -0.0136945 -0.034244 -0.148702 -0.037709 0.0633675 0.0310738 -0.0342199 0.0499499 0.00206577 -0.132632 -0.0998535 0.100126 -0.0730982 0.0149852 0.0509303 -0.177561 0.111942 0.133733 -0.0336151 -0.0162095 0.174018 -0.0564146 0.0906499 0.00839068 0.0941054 0.19916 0.0160468 0.0449198 -0.0386077 0.050726 0.0679783 -0.0236044 -0.133366 0.0824874 0.0243792 
0.0474235 -0.10955 0.00884299 0.0835287 0.161107 0.141874 -0.163105 -0.148471 0.051053 -0.044946 0.0178969 -0.0236954 0.126973 0.149497 0.12997 0.0148388 -0.118558 -0.0987099 0.0368811 0.120821 -0.00124265 0.0687907 0.0124028 -0.0653751 0.0190508 -0.0474519 -0.0549754 -0.00375904 -0.0923047 -0.112387 0.0168593 -0.177453 -0.240585 -0.0784805 -0.0147812 -0.164446 -0.0933919 -0.0572063 -0.0463823 -0.0934644 0.0220127 -0.0201747 -0.0510681 0.0460189 0.141936 -0.101463 -0.0412469 -0.0209797 -0.155788 0.169041 0.0396951 0.0486249 -0.00962572 0.0391842 -0.0680835 0.0331122 -0.133359 -0.0769235 -0.105816 -0.12036 -0.0143472 0.00246288 0.0745058 0.0700699 -0.0660333 0.036591 0.0942775 0.146618 -0.0468217 -0.024647 0.000110139 -0.142773 -0.00431238 -0.0426658 0.208001 -0.131925 -0.0936315 -0.072491 -0.025114 -0.0762648 -0.127249 -0.107727 -0.0223908 0.10626 -0.0233811 -0.0228289 0.0622813 0.0388139 -0.128905 0.0130662 -0.111901 0.0152963 -0.109628 0.0520788 0.0244791 -0.0170608 0.0375089 0.149553 0.0010579 0.156989 
-0.044083 -0.0437296 -0.0161764 -0.0383675 0.0586752 0.0393986 0.111069 -0.0489984 0.176896 0.113119 0.0315378 -0.249132 -0.0824362 0.0403258 -0.204983 -0.058717 0.0816309 -0.065739 -0.0442629 0.0399436 -0.0272167 -0.0888815 0.127119 0.0578588 0.058072 -0.0206247 0.00724637 -0.123972 0.176017 0.132579 0.122163 0.00252153 0.0469775 0.150784 -0.123226 -0.000439393 0.0540494 -0.0520946 -0.111641 0.166477 -0.273768 -0.0405636 0.20914 0.0930059 0.107695 0.116453 0.0487266 0.0847075 -0.0778424 -0.146452 0.0257583 -0.0464289 -0.0703688 0.143463 0.242357 -0.0406169 -0.0561139 0.0770856 -0.0624705 0.172054 -0.00875323 -0.124248 -0.0153484 0.185304 0.123398 0.0291488 -0.0906713 -0.0749093 0.07333 -0.00565809 -0.0202715 -0.0176805 -0.0357948 0.104633 -0.0587978 -0.0910622 -0.0709567 0.099199 -0.106117 0.14635 -0.0773055 -0.198857 0.353089 0.190057 0.0412075 0.00977783 0.0285369 0.0281702 -0.208788 -0.122459 -0.0379697 0.0094891 -0.0499835 0.0897803 -0.0831939 0.0491278 -0.0526325 -0.0256275 0.0101654 -0.0210219 
-0.0145931 -0.0077723 -0.103839 -0.235852 -0.106608 -0.0043558 0.0394406 -0.136716 0.100313 -0.0121338 0.163859 -0.216269 -0.0723246 0.16737 -0.0521775 0.00595878 -0.0937993 -0.0732842 0.00385451 -0.0884137 0.0842499 0.0153687 0.0263316 -0.0231008 0.152302 -0.0239112 -0.154047 -0.0377859 0.259596 0.12926 -0.295383 -0.112275 0.0316092 -0.110357 0.12325 -0.157685 0.0559256 0.00842762 -0.0946157 0.250939 -0.0087494 0.0992146 0.0675642 0.0501373 -0.214122 0.039115 0.148596 -0.00191306 -0.00249429 -0.243108 -0.231793 0.12282 -0.00039169 0.0440223 0.0887364 0.0757881 -0.0985094 -0.0763283 -0.0501402 -0.0748824 0.128115 -0.0189328 -0.107644 -0.0157237 -0.116208 0.0961702 0.047226 0.108968 -0.0414033 0.0105301 -0.050742 -0.033403 0.0595544 0.0824494 -0.055209 0.0363438 0.0109721 -0.0575613 0.148924 -0.0731574 -0.0941447 -0.0461646 -0.0593279 0.0346319 0.130012 0.0213891 0.147069 0.108727 0.0419867 0.21495 -0.0891742 0.0640124 0.207157 0.115438 -0.111006 0.0808569 -0.0737043 -0.0221183 0.0778825 0.130129 
-0.04398 0.027036 -0.0120788 0.0486461 -0.167477 -0.00518413 -0.00929249 0.0713155 0.0385241 -0.0897878 0.00621317 -0.159275 -0.131356 0.253176 0.192347 -0.216834 -0.0570429 0.158986 -0.0712765 -0.0495953 -0.00522137 -0.0528131 0.166314 0.060487 0.172668 0.0319393 0.0328576 0.0748705 0.0820566 -0.0408943 -0.0278935 -0.127828 0.110964 0.0338104 -0.0742402 -0.147993 -0.04464 0.048591 -0.15407 0.0918376 -0.0374559 -0.0561362 -0.107276 0.0375445 -0.0742881 0.0414457 0.0625959 -0.0529157 -0.0310871 0.248982 0.0370437 0.0303614 0.0855812 -0.0610496 0.0476747 0.0358143 -0.0539221 -0.129801 0.137238 -0.0623148 -0.0350303 -0.0143535 -0.0448699 0.0796105 0.0278692 0.104422 -0.0345435 -0.0716941 0.00590078 -0.0688407 -0.112965 0.0319938 -0.00845668 0.166341 -0.0435846 -0.100868 0.105213 0.0977496 -0.0133872 -0.0850335 -0.250795 0.0035126 -0.0509863 0.0647169 0.0173861 -0.112791 0.0481449 -0.0764693 -0.0156101 0.114137 0.0574413 -0.0619691 -0.101419 0.0977026 0.0656043 -0.117838 0.0379939 0.00495381 -0.12603 -0.178978 
0.0973157 -0.0179357 0.143793 -0.0941182 -0.0444332 -0.0982425 0.0132547 0.0237731 0.103003 -0.01839 -0.127214 0.0304713 0.0936386 0.216132 0.016515 0.0491359 0.130241 -0.092281 -0.0456053 -0.0788781 0.0441043 0.0869054 -0.0137208 0.0720902 -0.140303 -0.0487143 0.014329 0.158473 0.161654 -0.0712632 0.118904 0.103386 -0.106821 -0.072839 -0.24565 0.0803143 0.107065 -0.186739 -0.103863 0.0797173 0.166547 0.0225071 -0.0802322 -0.040062 -0.189725 0.10861 0.0136418 0.0406511 -0.00511601 0.0594035 0.00828973 0.0299681 -0.0215146 0.166407 -0.0607389 -0.0381657 -0.0718033 0.0415517 0.0483236 0.0475436 -0.0677959 -0.0307722 -0.0616146 -0.00485301 0.00537506 0.00113212 0.244609 0.0173967 -0.025773 -0.0295927 0.126759 0.166327 0.0648337 0.113976 0.0670939 0.0560443 0.0825388 0.0376969 0.0536486 -0.0171036 -0.00659371 0.0604098 0.0574362 -0.187348 -0.00198005 0.00709124 0.139228 -0.00217882 0.14122 -0.062677 0.0228337 -0.103762 0.087302 -0.00894804 -0.12511 0.0446304 0.0221674 -0.0295316 0.0573403 -0.0751867 
0.222471 0.0468693 -0.0301537 0.145148 0.140076 -0.0043404 0.00961212 0.0511293 -0.184682 -0.064532 -0.18391 -0.184181 -0.0811659 -0.143381 -0.149877 -0.10348 -0.0854628 -0.108849 0.0228783 -0.107499 0.105349 -0.0847123 -0.114317 -0.124428 -0.126518 0.0776919 -0.190025 -0.119143 -0.101097 -0.0630867 -0.15645 0.0900909 -0.131042 0.0246684 0.134809 -0.0801945 0.00181611 0.150649 -0.112331 0.140227 -0.14402 -0.00199913 0.0723531 0.218106 0.0701351 -0.0832086 -0.0352673 0.0506957 0.163636 0.113644 -0.319667 0.0275945 -0.0299295 -0.0144927 0.0750468 0.0441396 0.0842499 0.199838 -0.0224557 -0.0855349 -0.0489247 0.0798737 -0.0498074 0.102561 0.0715414 0.0260844 0.00976626 0.0651985 -0.0523133 0.157354 0.0770809 -0.0716861 -0.173439 0.0831724 0.0108059 -0.0262497 0.102467 -0.0378846 0.0867543 -0.0648188 -0.0358865 -0.165828 0.133595 -0.0137067 -0.191633 0.0029503 0.196247 -0.170401 0.066878 -0.0567249 -0.0941873 0.0847695 -0.0386002 -0.0450686 0.114672 -0.120543 -0.0748443 -0.0830495 -0.168085 -0.0441914 
-0.0779333 0.204842 0.0441998 -0.0980904 0.075345 -0.171999 0.0700484 0.137523 -0.0332842 0.185531 0.0119615 -0.0243178 0.0315947 -0.128186 -0.12923 -0.0124093 0.0858847 0.0868733 -0.145106 -0.0676923 0.0619428 0.0927544 -0.00664049 -0.139831 -0.00975256 -0.0837081 -0.19114 0.052424 0.0555068 0.0467117 0.188831 0.0680226 -0.120719 0.0275619 -0.0308382 0.0131294 0.0856641 -0.162798 0.103562 -0.0501636 0.0396996 0.117989 0.0854276 -0.0796927 0.266878 0.232793 -0.105051 0.00452823 0.0689029 -0.125439 0.0243535 -0.0404512 0.00368993 -0.0183964 0.0864606 -0.233419 0.0865517 -0.168156 0.0779616 0.114393 -0.0125071 -0.062796 -0.0514735 0.0513591 -0.09413 -0.12018 -0.0299646 0.0556145 -0.00139067 0.0495495 0.0525815 -0.146417 0.0925713 -0.0122731 0.0965831 -0.16346 -0.205564 -0.0288836 -0.0792475 -0.0825429 0.143754 -0.0884724 0.0390138 -0.165881 -0.092699 -0.0334023 -0.235266 -0.224559 -0.194831 0.166118 -0.12773 -0.0811947 0.0777714 0.0772877 -0.0746263 -0.0448203 -0.152538 0.183843 0.125211 -0.0222708 
-0.0514366 -0.146952 -0.133086 -0.0181969 -0.0310989 0.0619092 0.0318494 -0.0893029 -0.0636379 -0.00697343 0.0640254 0.177859 0.0279293 0.00642914 -0.0776284 -0.0526684 0.19921 -0.1044 0.11032 0.060945 0.0115499 -0.179831 -0.147856 0.12005 0.123985 0.0753497 0.0576056 -0.0270079 -0.174764 0.128575 -0.0876261 0.126456 0.0927414 0.0635962 -0.203715 0.0816778 0.0321609 0.103022 0.0511226 0.0534039 0.0228521 -0.0921987 -0.135835 -0.0936908 -0.0285206 -0.000411959 -0.105096 0.140686 -0.0592989 0.075314 -0.0179772 0.218334 -0.000279299 0.0390607 -0.0359194 -0.0717691 -0.0849924 -0.166113 0.1395 -0.068274 -0.0365349 -0.156753 0.113209 0.0378757 -0.0623876 0.0648669 -0.0626828 -0.116236 -0.0575794 0.0737358 -0.0966779 -0.0283048 0.0203359 0.117222 -0.0717974 0.189032 -0.104361 0.0459398 -0.141698 0.0131118 0.0572333 -0.0615928 -0.0439126 -0.0989814 -0.0955042 0.0510024 -0.0426836 0.0430897 0.0178536 0.0297326 -0.0944458 -0.0587948 -0.065046 -0.0571461 0.0359855 -0.198162 0.0452516 0.0179625 -0.193054 0.0768025 
-0.00936861 -0.0548093 -0.102087 0.163511 0.32121 0.117804 -0.121337 -0.112726 0.0715636 -0.0802915 -0.0811253 0.120328 0.0526339 -0.0532194 0.0401458 0.180292 0.0582412 0.0528038 -0.0221462 0.0077019 0.0776488 0.118136 -0.0846366 0.0201341 -0.101694 0.0715712 -0.0547115 0.0540741 0.0502189 -0.124189 0.0468638 0.0247482 0.0178637 -0.0465343 -0.128368 0.0203141 -0.11354 -0.0617443 0.0450503 -0.00343945 0.0559475 0.157127 -0.136137 -0.0642237 0.017451 -0.0260932 0.0642748 -0.0403537 0.100285 -0.0191866 0.0622119 -0.134004 0.239559 -0.0445967 -0.126073 0.0491625 0.0815867 -0.00460526 -0.00350627 -0.0231259 0.0777207 -0.0530184 -0.0356886 0.244108 -0.0370594 -0.0766324 -0.124104 -0.00607823 -0.0265297 -0.0551575 0.0154306 0.109622 -0.0466145 0.105624 0.066853 0.042571 0.196937 -0.160941 -0.0872079 -0.031113 0.118398 -0.259665 0.024385 -0.0883992 -0.0655939 -0.100571 -0.058546 -0.0496285 -0.0226295 -0.0181127 0.0788896 0.120426 0.0718532 -0.0619422 -0.106096 -0.00284001 -0.0647389 -0.108804 0.00745167 0.143549 
0.11812 0.0896803 0.0775649 0.180797 0.0477215 0.109878 -0.0110102 -0.0175604 0.108971 -0.172251 0.164983 -0.0626491 -0.0426743 -0.0922879 0.0134372 -0.0513728 -0.064202 0.0180723 -0.166087 0.181471 0.0158764 0.00347437 0.178592 -0.0715888 -0.0844239 -0.136927 -0.158718 -0.0524013 0.00472522 -0.0593246 0.050913 -0.0151418 0.0204841 -0.0203976 -0.0764736 0.022506 0.0721493 0.139702 0.258866 0.0195941 -0.0146342 0.0228127 0.108923 0.185389 0.0571217 0.0529437 0.0510841 0.0149202 -0.158761 -0.0486949 0.0913844 -0.0399402 -0.00974231 0.0172386 -0.0180906 -0.0988447 -0.269054 0.0744583 -0.0455001 -0.0235742 0.158174 0.0748903 0.025656 0.000264803 -0.0715652 -0.000180791 0.211971 0.064732 0.0613483 0.107698 -0.364601 0.0195371 -0.0165743 -0.0665932 -0.0722033 0.0835928 0.0964451 -0.0309388 -0.0324101 -0.0732732 0.0163153 -0.0697704 0.0145716 -0.0985163 0.0103756 0.136371 -0.142215 0.183273 -0.127377 0.0961917 0.185269 0.16405 0.0296854 -0.0254029 0.0501854 -0.0988598 0.00833349 0.161508 -0.0279242 -0.127655 
-0.116971 -0.0014375 -0.0753655 -0.0713161 0.135054 -0.212107 0.00955572 -0.161913 0.0193404 0.0398504 0.0141286 -0.097671 0.0969796 0.0288263 0.0748885 -0.0313001 0.0823411 -0.0228585 0.158162 0.117646 -0.104284 -0.018492 0.0399562 -0.117025 -0.0319168 0.19499 0.0153037 0.0262962 -0.144867 0.0521885 0.00677567 0.00345719 -0.0622027 -0.100309 0.0959163 -0.108045 0.0245624 0.0685723 -0.0423582 0.130644 0.142714 -0.0852879 -0.0437461 -0.0404825 -0.156625 -0.071628 -0.0858898 -0.114065 -0.114755 0.0936101 0.0589538 0.0164794 -0.0552203 0.109527 0.0205185 -0.0257115 0.19986 -0.00451484 0.15073 -0.223481 0.0749373 0.029556 0.157344 -0.238852 -0.163411 -0.140284 0.101941 0.139017 0.0743332 -0.00494005 0.00797883 -0.1122 -0.202527 0.044718 -0.0279125 -0.0799051 -0.0185101 -0.0758001 -0.152355 -0.107075 0.162202 0.0261292 -0.0766223 0.00591623 -0.0854907 -0.00962953 -0.0457021 -0.126519 -0.077431 -0.137465 -0.0242361 0.0358278 -0.255767 0.0724794 -0.0792118 0.0312648 -0.111039 -0.0872223 -0.021765 -0.0247489 
-0.129634 0.18586 0.0843217 -0.110759 -0.0065211 -0.135334 -0.134407 -0.0192391 -0.0672899 0.00667124 0.162052 -0.0493155 -0.0450811 0.16433 0.110328 0.0547255 0.0354184 0.124678 0.0299137 0.138856 -0.212179 0.0494978 -0.102846 0.125861 -0.068996 -0.0223292 0.000554882 0.034755 0.103578 -0.0663896 -0.141929 0.0935271 0.113831 -0.123616 -0.00674577 0.0835202 -0.0225593 -0.000496307 -0.0168328 -0.193789 -0.000586775 0.00203828 -0.103842 -0.24582 0.0994018 -0.00235358 -0.130947 0.115804 0.0856532 -0.0647892 0.129643 0.0140827 -0.019722 -0.238028 0.0219283 0.0324683 0.0355567 -0.168939 0.0408407 0.0314741 -0.0249034 0.0236153 0.0614687 0.0202516 0.156382 0.0193448 -0.147159 0.11296 -0.104248 0.174236 -0.0628394 -0.119209 0.219294 0.104876 0.0335781 0.109855 0.0969701 0.058556 -0.0159449 -0.173074 0.0930969 -0.11714 0.0814736 0.04598 0.100142 -0.0808467 0.0185232 -0.0228689 -0.0671733 0.00512141 0.0120773 -0.100258 -0.0610658 0.021749 0.081796 0.0743067 0.0667195 0.0102249 -0.0238654 -0.157693 
0.0938684 -0.132504 0.147184 -0.0712645 -0.138793 -0.0413879 0.0561844 0.258316 -0.105534 -0.187366 0.0774114 0.161659 -0.038085 -0.104663 -0.0367263 0.0667766 -0.0800764 0.0379807 -0.103873 -0.0157773 0.0419139 -0.00369925 0.0451614 -0.0536378 -0.058215 -0.0162798 0.0181335 -0.0535337 -0.0730361 0.038332 -0.199322 -0.0672044 0.107511 0.117055 0.174497 -0.104615 -0.0378966 0.0986424 0.0449256 0.00138784 0.178657 0.0222677 0.124921 -0.155773 0.0601172 -0.00760558 -0.0422368 0.00478665 0.0422276 0.0598196 -0.134468 0.0620776 -0.0323589 -0.11383 -0.121008 -0.0947508 -0.000441205 0.133156 -0.0775625 0.0851953 -0.0265554 0.021059 -0.0681706 0.0462226 0.0078645 0.0122382 -0.0849602 0.0441011 0.0679029 0.0974613 -0.0063614 -0.0836566 -0.0560809 -0.126747 -0.00211137 0.182816 -0.13334 0.0322109 -0.0268924 -0.0527654 -0.0159109 -0.0216354 0.0573948 -0.0855444 -0.0845675 -0.0904893 0.0338925 -0.17889 -0.0382721 0.0195239 -0.00251255 -0.0437166 0.106901 0.0682837 -0.074489 -0.00306811 0.0436937 0.116171 -0.0513065 -0.0782853 
-0.116384 -0.0781758 0.0569295 0.13346 -0.36535 -0.185419 0.156925 -0.1415 -0.0943468 -0.0541866 -0.0697085 0.142135 0.00290034 -0.020078 0.000627163 0.0113192 0.169704 0.127027 -0.019452 0.056583 -0.0171458 0.0414795 -0.109915 -0.00233244 0.0907641 -0.138377 -0.0246925 -0.203059 -0.107318 0.0464994 0.00517374 -0.033898 -0.0760674 -0.00285677 0.00377503 0.1277 0.207917 0.269126 -0.04737 -0.0336789 -0.0162178 -0.0384069 0.0632802 0.286248 -0.141617 0.0210383 0.210829 -0.101803 -0.0151899 -0.0724722 0.0501979 -0.0770884 0.0889621 0.0823662 -0.0315613 0.0475121 -0.104196 0.19453 0.000441778 0.0344969 -0.141719 0.0370966 0.0721741 0.019333 0.0728969 -0.0623154 0.0306622 0.116039 0.141433 -0.0481978 0.0384081 0.0474305 0.13453 0.0276588 -0.0623978 0.0508306 -0.0823718 -0.0125221 -0.0157541 -0.0324775 0.218138 0.0915448 -0.0568835 0.00777274 -0.0546059 0.155488 0.0822269 -0.00408515 0.127891 0.102405 -0.0444016 0.189203 0.203126 -0.000548542 -0.168675 0.0515191 0.0650742 0.0527847 0.0577117 -0.0125597 
-0.0228524 0.132093 -0.217322 -0.0426876 0.0368598 -0.0044301 -0.0773434 0.0774461 0.0701392 0.0694375 -0.0512006 -0.0458672 -0.0204131 -0.0124887 0.0100609 -0.070503 -0.103432 0.0394973 -0.184453 0.00587784 -0.0734372 0.0375663 0.0816934 0.059618 -0.0422549 -0.0470203 0.0793763 -0.00302706 0.12693 0.0777797 -0.167995 0.0452824 -0.102487 0.0228347 0.0535927 -0.0624979 -0.0335656 0.0913033 -0.0444624 0.0923037 0.0974945 -0.00370823 -0.0486073 -0.152518 0.00620491 0.170284 0.157634 -0.0626217 0.0216086 -0.0260732 0.00132176 0.136535 -0.0810202 0.158861 0.00961727 -0.0242667 0.148918 -0.0649345 -0.028153 -0.204105 0.0794121 -0.0248158 0.0199235 0.0195941 -0.165064 0.0344872 -0.109714 -0.002067 0.137766 0.0613771 -0.00906661 -0.0395806 0.200054 -0.0814029 0.102299 -0.117548 0.0574788 -0.0228387 0.00586978 -0.0894994 -0.199597 0.103595 0.0283949 0.077112 0.160704 -0.0382874 0.112338 0.0292081 0.069633 0.0413225 -0.0111461 0.0988071 -0.0564891 0.0890366 -0.0110538 -0.160263 -0.046013 -0.124557 -0.207231 0.0816992 
-0.0994103 -0.0306007 0.0697582 0.240137 -0.0679683 -0.0795992 0.110692 0.153986 0.195982 -0.0593198 0.0770134 -0.038145 -0.187596 0.140769 0.0192662 0.0772815 -0.152645 -0.0391125 -0.0128543 -0.0351947 0.0485014 0.0130156 0.0169333 -0.0461239 -0.0921394 -0.0651682 -0.265487 -0.0150017 0.117402 -0.163872 -0.15674 0.0772903 0.030271 0.0537968 -0.012728 -0.0693423 0.11184 0.145721 0.0833588 0.175999 -0.0314798 -0.0288964 -0.115727 -0.062003 0.0374818 0.0405332 -0.0202838 0.157656 -0.090532 0.0195436 -0.141657 -0.201858 0.0862811 -0.126114 -0.112079 0.117148 0.133865 0.0783562 -0.00338446 0.0838733 0.165293 -0.117334 0.13186 0.233694 -0.0490127 -0.166289 -0.0534412 -0.0688199 0.0438404 -0.119119 0.00765202 0.114315 0.040876 0.0573821 0.0047005 0.114533 -0.0810008 -0.10705 -0.0112141 0.00339924 -0.0186322 0.206196 -0.0829647 0.0391368 -0.0109743 0.0945741 0.04701 -0.141118 -0.0266022 0.204672 0.0238946 -0.0142099 -0.133649 0.0662153 -0.142765 -0.0507566 0.0209339 -0.0479866 -0.217903 0.0758821 
0.00779389 0.0889843 0.123786 0.0775991 0.056901 0.0603609 0.0683746 -0.0122937 -0.0910329 0.0649472 0.03283 -0.0625025 -0.0376379 -0.138862 0.130162 0.0578913 0.089547 -0.0427397 -0.0270883 -0.114522 0.0805594 0.00548087 -0.0591265 0.070044 -0.0067609 -0.0246373 -0.150891 -0.00573411 -0.0925584 0.0747897 -0.109884 0.0211738 0.266222 0.168435 0.165596 0.107848 -0.0287528 -0.0542302 0.00822814 0.00599735 -0.0169048 0.0412301 -0.0762654 0.0533768 0.0318392 -0.0666264 0.0557012 0.073433 -0.20219 0.0635019 0.0253963 -0.188514 0.10049 0.0947927 -0.0384472 -0.0214893 0.00220226 -0.0722303 -0.0414338 -0.0689347 -0.0743247 -0.0195835 0.00286231 -0.196705 0.362876 -0.097538 0.000882407 -0.0850031 -0.0666881 -0.0491002 0.215662 -0.0259261 0.0787357 0.0424266 -0.0269968 0.126875 0.00182081 0.05507 -0.127936 -0.0480621 -0.113377 -0.0748591 0.160857 0.121787 -0.124472 0.106997 0.0717112 -0.0110922 0.0405788 0.0388767 0.137516 -0.0471643 -0.039926 -0.048633 0.145267 -0.015502 -0.0854329 0.0716672 0.0810443 -0.192432 
-0.0556599 -0.170665 -0.0657765 0.0223375 -0.137154 -0.028711 0.0702246 -0.0218222 -0.183907 0.0440603 0.048512 -0.0254369 0.0926005 -0.069459 0.0357017 0.0712461 -0.0190083 -0.0398671 0.020698 -0.0500069 -0.00143257 -0.0205307 -0.0636663 -0.0462547 -0.0930296 0.084979 0.0141017 -0.174481 0.0461932 0.0385436 0.030092 -0.0520357 -0.0271773 0.115411 -0.114206 0.120647 -0.0286277 -0.108385 -0.0840813 0.00928934 -0.20914 0.190146 0.186666 -0.124139 0.0103384 -0.10206 0.14938 -0.162183 0.132513 -0.0793737 0.090541 -0.106404 0.169778 0.112987 0.265845 -0.153329 -0.0843685 0.0617307 0.0761009 0.0112021 0.0436397 -0.0689474 -0.0414999 0.0745698 -0.136492 -0.0131953 0.0306599 -0.142938 0.189748 -0.0407179 -0.0430207 0.014328 0.0934928 0.105562 -0.00566749 -0.0189957 -0.14075 -0.0272359 0.0764393 -0.24071 0.0420163 -0.0373039 -0.173958 0.00848665 -0.0950858 -0.00539467 -0.050882 0.213538 0.0264209 0.104041 -0.0357327 -0.0950584 0.00791097 -0.0123002 0.106597 -0.208036 0.0996344 -0.0616094 -0.0294696 0.00795514 
0.209401 -0.157887 0.0162018 0.172424 -0.23962 -0.0462411 0.0194054 -0.125331 -0.154593 0.0917026 -0.13565 0.187774 -0.0295711 0.0661993 -0.0634114 0.149365 0.165005 -0.0934335 -0.00642104 0.0203737 -0.07041 0.00454111 -0.0371459 -0.0625586 0.0907596 0.00603575 0.0769355 0.193986 -0.0351504 -0.0296405 -0.0581767 0.111548 0.152288 0.170353 0.15488 0.0629526 -0.0115292 0.0291977 0.0928744 -0.0564715 -0.0679409 -0.022072 -0.0751497 0.268183 0.106677 0.0867416 0.0846301 0.0559866 0.033762 0.0683174 -0.0205362 -0.0869196 0.155077 0.0362742 -0.0212667 0.222596 0.0437038 0.0714706 0.0156637 0.170827 -0.00843886 0.0348605 0.063474 -0.155355 0.0470119 -0.00534616 -0.0346141 -0.0554685 0.108567 -0.00685155 -0.0117286 -0.0141014 -0.115718 0.0454029 -0.0259743 -0.105146 0.000390123 0.153428 0.0133171 0.0961562 0.0380271 -0.123744 0.0399031 0.05574 0.142675 0.154482 0.0556629 -0.0655633 -0.0374728 -0.0845296 0.120764 -0.124996 -0.130088 -0.0989711 -0.00498355 0.0266811 0.0031049 -0.0271804 0.0712165 -0.035129 
0.0297256 0.00771362 -0.0662323 -0.162267 0.170456 -0.21729 0.071318 0.153622 -0.0809818 -0.111827 0.0128097 -0.0738562 -0.0647931 0.0490803 -0.0628149 -0.0910707 0.0977672 -0.0241251 -0.148642 -0.0982398 -0.110836 -0.108801 0.0355369 -0.208558 -0.0104509 -0.105973 -0.0242871 0.0115049 0.242168 0.0896992 0.0109478 0.0619126 0.109892 -0.072531 0.075056 -0.0060438 -0.127697 -0.0811584 -0.0937945 0.0432335 -0.0824546 -0.10313 0.00533403 -0.0607554 0.0212179 0.00980594 -0.0251045 0.0782806 -0.0692975 0.0264087 -0.185743 0.036844 0.0217199 -0.0276468 0.146038 0.302915 0.105531 -0.0117561 -0.0597471 -0.218321 0.203413 0.0428701 -0.0389187 -0.0392048 0.0195862 -0.171448 0.0500321 0.0946617 0.164876 -0.0402451 -0.0133469 -0.000551929 -0.016379 -0.13401 0.0260663 -0.0901699 0.0307081 0.0482663 -0.0118013 0.0307153 0.0179053 0.115424 -0.0541385 -0.0842459 -0.164991 0.0787078 0.0531229 0.0433601 0.0636086 -0.068664 0.0433955 0.120433 0.0665848 0.0172146 -0.182739 -0.0938437 0.0530396 0.0616242 0.0741067 0.0507379 
0.145986 -0.0287691 0.0553473 0.248812 -0.0577758 -0.0505162 -0.200655 0.147804 0.0012902 0.0260336 -0.00869992 -0.147263 0.0727648 0.0826726 -0.0856415 0.0237933 0.121296 -0.0706955 0.0700643 0.0327783 -0.142393 0.166992 -0.0595788 0.19586 -0.0379312 0.0343298 -0.0681578 0.196693 0.127515 -0.1114 -0.0708816 0.103274 -0.0433349 -0.0204127 -0.0100227 -0.135898 0.00363338 0.0297048 -0.00185592 0.00413093 -0.0594457 0.0480978 -0.0165095 0.06881 -0.0251607 0.00362429 0.0678342 -0.0544745 0.152145 -0.0403815 -0.0372009 -0.0572148 -0.0746933 0.0181981 -0.013366 -0.00483046 0.061147 0.0848384 0.109865 0.0718052 0.180948 -0.0236093 0.202243 -0.133583 -0.138189 0.0656608 0.0267697 -0.145421 0.0587118 0.0314234 0.121241 -0.0526227 -0.0262545 -0.0987994 0.130451 -0.0519864 0.0980804 0.0535221 -0.0723251 -0.0344007 -0.0215612 0.12707 0.0122371 -0.212785 -0.0558531 0.101662 -0.0334237 -0.198005 -0.00330359 0.00469197 0.171188 -0.055897 -0.133761 0.101439 0.00439129 0.142513 0.0323859 -0.213886 -0.0552653 -0.018306 
0.127549 -0.0400807 0.081622 -0.038458 0.179822 0.174373 -0.0877579 0.0633602 -0.101793 -0.0279729 0.215979 -0.020324 0.0282557 -0.026808 0.01191 0.148506 -0.0576377 0.0742569 -0.00316105 -0.0267188 -0.0857462 -0.106096 -0.00463222 0.0574827 0.0765295 -0.0384373 -0.0644899 -0.125416 -0.00155148 0.103435 -0.20438 0.121701 0.157429 0.00423594 -0.00246357 -0.184472 -0.373669 -0.078784 0.0750835 0.204568 -0.196741 0.0513456 -0.0705186 -0.127008 0.0528492 0.0807243 0.0441406 -0.0310716 0.0811803 0.085998 -0.0951725 -0.0299368 0.102665 0.158689 0.101919 -0.143843 -0.101849 -0.00474671 -0.0206578 0.0271257 0.0800927 -0.0463116 0.00393553 -0.124349 0.19948 0.0809496 0.0542669 0.236639 -0.0373609 -0.174972 -0.116171 0.0306126 0.109605 -0.0393304 -0.127479 -0.13905 -0.0697937 0.165778 -0.168408 0.0546224 0.120155 0.222427 0.0107126 -0.0973372 0.193691 -0.0362742 0.00211283 -0.0655294 0.0534015 0.119491 -0.0581936 -0.0604157 -0.115454 0.149294 -0.064241 0.156553 0.182274 -0.0824347 0.138287 0.0196158 
0.111599 -0.100738 0.00666352 0.00791294 0.0402861 0.102596 0.0679859 0.0586188 -0.0344734 0.103034 0.0461777 0.0445575 0.0609702 -0.173569 -0.134558 -0.117003 0.0604795 -0.0699789 -0.00490203 -0.0385045 0.0161322 -0.078933 0.180004 0.0517982 0.0388589 0.0385944 0.0676281 -0.0173949 -0.127382 -0.0016429 0.0180916 0.106565 -0.0571928 -0.0703195 -0.135965 -0.0610756 0.0976301 0.0209975 0.0641532 0.092987 -0.0410617 -0.100394 0.0436443 -0.000960354 -0.0701277 0.0358356 -0.120262 0.10879 -0.0241392 -0.262623 0.0648625 0.130614 0.0215764 -0.00674774 0.0470643 -0.0802756 0.0330959 -0.0499409 -0.0971506 0.0375286 0.0625609 0.104133 -0.0310914 0.0079155 0.0515348 0.0818482 0.041574 0.0644244 -0.0332109 -0.135542 -0.0188774 0.112616 0.0804742 0.061256 0.0269783 0.226202 0.0405291 0.0650339 -0.23639 0.0147825 -0.0361695 -0.0249978 0.0144047 -0.0510084 -0.0781504 -0.00508425 0.0102889 -0.0029624 0.0486761 0.0422198 0.0203182 0.0508997 -0.0246909 0.0820659 -0.099866 0.10578 0.108442 -0.188105 -0.152057 -0.0597597 
-0.0254742 0.174465 -0.0553072 0.0339928 0.0560011 0.0767723 0.00926905 -0.078886 0.03424 0.0112094 -0.0465106 -0.139801 -0.094956 0.0327957 -0.00234911 0.0495976 0.0112287 0.0166534 -0.162158 0.0576888 0.104393 0.0672527 0.17562 -0.0150541 -0.00597296 -0.134934 0.0741415 0.0405663 0.174374 0.00333519 -0.0131808 0.0578957 -0.0899202 -0.0575813 0.122301 0.0783858 0.00220514 -0.10071 0.0118843 0.124594 0.00868842 0.236239 0.13766 0.268132 0.0702858 0.103112 0.113699 -0.0206377 -0.166983 -0.236179 0.118884 -0.0544291 -0.11086 0.0956325 0.0525004 -0.0880136 -0.0336393 0.000522992 -0.0287377 -0.117955 -0.115076 -0.0246941 -0.0595602 -0.0175959 0.169955 0.0587291 -0.0832132 0.225694 -0.0928172 0.0389102 -0.0678254 0.027367 0.101269 0.02335 0.0450795 -0.135512 0.144642 -0.0792574 -0.0660167 0.0118456 -0.0661855 -0.0832818 0.0164897 0.08601 -0.141875 0.00432903 0.00743975 0.140243 0.0531797 -0.0542815 -0.121664 0.000426228 0.175536 -0.0129215 -0.0622739 -0.0597575 -0.00286592 -0.044431 -0.0244399 0.346543 
0.0991291 -0.0491736 -0.0985519 -0.0429962 0.0721091 -0.0362509 0.0272474 0.00146127 -0.0198299 0.0633551 -0.158322 -0.00750991 -0.0945443 -0.018434 -0.183688 0.0460645 0.200947 0.0321784 0.0117533 0.104154 -0.0896543 -0.0290433 -0.145919 0.00938891 0.0819342 -0.169096 0.0977912 -0.0332324 -0.0143189 0.0399822 0.227429 0.0659104 -0.0566823 0.124682 -0.110378 -0.115971 -0.0972206 -0.0515556 -0.0907609 0.0548736 0.0852541 0.0977455 -0.0432425 0.041822 -0.261714 0.196152 -0.146352 0.105449 0.0713932 -0.123419 -0.00747666 -0.0171229 0.0246546 -0.0676832 0.0484397 0.0379919 -0.109175 -0.0880117 -0.00075136 -0.0408191 0.010662 -0.0200208 0.152272 -0.189581 0.106514 0.0642516 -0.0835762 0.036908 -0.394316 0.102346 -0.0587133 -0.0682604 -0.0282874 -0.0401876 -0.113719 -0.0116508 0.0714728 0.133113 0.0170588 -0.0589091 0.0730723 -0.146245 0.0370536 -0.195125 -0.0134796 -0.0205815 0.0837895 0.0757002 0.0841666 0.0439036 0.170694 -0.0462215 0.165841 -0.126309 -0.0201595 -0.110495 0.103596 -0.0953957 0.0173438 -0.0926861 
0.060389 0.0305607 -0.0809049 0.0390729 0.0633017 0.0638591 -0.0576784 0.0661616 -0.10176 -0.0863977 0.129965 0.12126 -0.0377735 0.0510347 0.110843 0.247061 0.00156247 0.0637406 -0.0262295 -0.0635369 0.0481199 0.0675032 0.0824655 0.102795 0.0878276 0.00745534 -0.0958511 0.067348 -0.0141844 0.133496 -0.0548418 -0.0279266 -0.0965228 0.0189466 0.0314029 0.0309535 -0.128411 -0.0170511 0.128868 0.125407 -0.0986857 -0.00531982 -0.0395248 0.0677618 -0.0891166 0.000141352 0.0634886 -0.187896 -0.0763875 -0.122121 -0.0244311 0.124737 0.0414052 -0.062054 0.0569671 0.0708649 -0.151792 -0.0221164 0.048305 0.113052 -0.143466 -0.0893186 0.118127 0.0153503 0.0431641 0.100141 -0.0877327 0.0763806 0.180388 -0.105069 0.0253928 0.225347 0.00193666 -0.0148007 0.0223238 0.336847 -0.130281 -0.132772 0.115206 -0.191508 0.0680307 -0.069084 0.0504936 -0.0579424 0.113028 0.0233245 -0.0806863 0.0430309 0.0207884 0.0119016 -0.0215531 -0.170559 0.0250753 -0.15056 0.1277 0.101986 0.0427481 0.0825351 -0.0566017 0.111674 
-0.210473 0.0594795 -0.0338521 0.138167 0.0204057 0.0626499 0.0934432 -0.0346154 0.0873317 -0.0337275 0.0657979 -0.123136 -0.0332889 -0.0570402 0.0924496 0.0623177 -0.00759075 -0.0543601 -0.0775915 0.0190704 0.085143 0.00130153 -0.126325 -0.131755 0.12009 -0.0429208 -0.0745412 -0.0871573 -0.0561263 -0.127194 0.013837 0.0121521 0.200916 -0.138259 -0.290609 -0.122609 0.114077 0.149394 0.0559357 0.0960248 0.0274413 0.144758 -0.032802 -0.0453235 0.141251 -0.173742 0.0810411 0.0474909 -0.142469 -0.148816 -0.0737052 -0.0399165 0.0321111 0.0499194 -0.0756757 0.111799 0.117865 0.139332 -0.0711561 0.234373 0.0635899 0.0206533 0.0736337 -0.0515635 -0.191776 0.0617142 -0.0468856 0.00788464 0.0301736 -0.0141077 0.0858891 -0.0629525 0.0787483 0.13768 0.0578905 -0.163967 0.0613092 0.168625 0.0521379 -0.0244804 0.0415223 -0.0125506 0.0554898 -0.112383 -0.0216592 -0.0475226 -0.18931 0.117502 0.0426935 -0.0157692 0.0871015 -0.0390804 0.178577 -0.0360158 -0.127897 0.027222 0.150704 0.110969 0.144546 -0.0188162 
-0.021221 0.128151 0.0258305 0.0248 -0.0532024 0.063421 -0.240795 -0.0284966 -0.176042 0.228303 -0.122683 -0.03042 0.0106517 -0.159942 0.0581751 0.0396249 0.0280281 0.0741091 0.0516263 -0.0555557 -0.141193 -0.121599 -0.122791 -0.140975 -0.101809 -0.00211704 -0.0559268 0.0136379 0.103942 -0.0418358 0.0256496 0.0283922 0.0940203 0.0164056 -0.163188 -0.0616555 -0.198657 0.0510233 0.0264763 -0.0941812 -0.00302721 -0.0390504 0.0742126 -0.147325 0.113728 -0.011179 0.0251801 0.0827324 -0.054281 -0.0508518 0.0191036 -0.0652166 -0.0776123 0.113408 -0.207722 0.269697 -0.0943475 0.00780116 0.0421193 -0.0758228 -0.0373333 0.240591 -0.0998934 -0.0577922 -0.0159308 -0.109117 0.0129005 0.119578 0.0241516 -0.0203372 -0.0182465 -0.0333688 0.115192 0.0132267 0.0165339 -0.00479942 -0.124109 -0.00740739 -0.102851 0.0685796 -0.0531035 -0.00322602 -0.00374571 0.0523509 -0.0210486 0.0460994 0.212562 -0.0412065 0.134192 0.117407 0.00358939 -0.0974925 -0.0881112 -0.102407 0.284506 0.0472265 -0.0385419 0.245358 0.0021666 0.136091 
0.0824452 -0.0522282 -0.0381877 -0.199421 0.101534 0.0773678 0.115568 0.101802 -0.0165964 -0.0140697 0.0449906 0.245329 0.0419342 0.00845736 0.194178 -0.13087 0.0187087 -0.00819941 0.0431832 0.0840523 0.0286185 0.0866766 0.147424 -0.087596 0.278565 -0.0825551 0.123077 -0.131613 0.0292013 0.113982 0.00453169 -0.166959 0.0851373 -0.0976992 -0.127879 0.0531365 -0.0831061 0.0819258 -0.184658 -0.0413924 -0.0033572 0.0918985 -0.0524685 -0.114551 -0.030859 0.0462207 -0.0350536 0.0277163 0.0867877 -0.00125898 0.0301162 0.159132 0.00634362 0.0623178 -0.0437296 0.0985878 -0.143996 0.0669771 -0.177855 0.133922 0.0282217 0.0922661 -0.053531 0.124109 0.0374384 0.0813973 -0.161052 -0.00410708 -0.00622231 0.0603092 -0.0905867 0.00347443 -0.0502951 -0.00266144 0.0162872 0.0763794 0.135366 0.140695 -0.0614751 -0.0608397 -0.125883 -0.0229183 -0.144438 0.116023 -0.208922 -0.141466 -0.150202 -0.166532 0.0555179 0.0158648 0.101135 -0.153606 -0.0357326 0.160257 0.165738 0.0861689 0.268416 -0.0888365 -0.116662 0.134611 
0.00367581 -0.074332 0.0212006 -0.127382 0.0130249 0.0560179 -0.0716672 -0.0797177 -0.0779089 0.115452 0.00195981 0.0660679 0.0374091 0.201426 -0.0484228 0.0388844 0.0694326 0.178878 -0.260317 0.11634 0.06952 -0.0318603 -0.0626376 -0.0380092 0.0701507 -0.140017 0.0657825 -0.0805669 0.125596 -0.0276457 -0.0356264 -0.0530655 0.0477531 -0.0244139 -0.0166171 0.0203188 0.0476833 0.109661 0.120227 -0.132194 -0.0668863 0.126735 0.0428731 0.227014 0.0354039 0.281514 0.0828981 0.313553 0.0484581 -0.1577 -0.0366 -0.0505778 -0.085803 -0.024337 0.143651 -0.0113705 0.0751074 -0.11295 0.311059 -0.133381 0.0663336 -0.0942732 0.0979751 0.129335 0.0982696 0.0679734 -0.165066 0.0326453 -0.173749 0.0372456 0.0204879 -0.14012 0.0656539 0.0360263 -0.0923706 0.0659327 -0.0848504 -0.115002 0.00735276 0.039711 -0.109641 -0.0126037 0.00688097 -0.15638 0.0299536 -0.0240994 -0.0823279 -0.0462996 -0.0449803 -0.15711 -0.0218629 -0.3703 0.0465516 -0.065532 -0.0316332 0.130957 -0.16533 -0.0199771 -0.142507 0.104422 
0.0170886 0.104112 -0.0549495 0.0296235 -0.0600969 0.121301 0.0595885 0.0341992 0.100614 -0.00254312 0.0411619 0.203517 0.152568 0.16513 0.0819376 -0.0530487 -0.0567707 0.110581 0.0496884 -0.0456265 0.106932 0.1676 0.142824 -0.156457 0.0549711 0.0471504 0.0851542 -0.145469 -0.0887562 -0.0290111 -0.0963315 0.0287404 0.0992531 0.00298695 0.0270541 -0.0495268 -0.0466277 -0.0282415 -0.0537636 -0.0119994 -0.219508 0.169155 0.0399845 -0.0698319 0.0808022 0.103584 0.0643218 0.061312 0.106285 0.0388724 0.0646257 0.0310329 -0.162226 0.0123753 0.0963146 -0.0256198 0.0777064 -0.0833968 0.0196329 0.0259971 -0.114792 0.106754 -0.0632464 0.0199343 0.0653679 0.109762 -0.0480869 0.0936738 -0.0469449 0.234301 -0.00625216 -0.0142735 -0.214574 0.0181622 -0.0680502 -0.124262 0.13524 0.153893 0.00918376 -0.110143 0.0484089 0.0308723 -0.0428666 0.030235 0.0690838 -0.0793213 0.0420614 -0.042656 0.128092 0.0614522 0.00340208 0.0052516 -0.0282618 0.121521 0.0070212 -0.0520926 -0.132603 0.110891 0.014999 0.203024 
0.0765653 -0.022267 0.0240136 0.229113 -0.0874652 0.30706 -0.15199 0.054167 -0.118081 -0.022251 -0.193736 -0.175809 -0.077019 0.0951192 -0.0193163 -0.0334618 -0.00319473 0.0591844 -0.0801433 -0.131245 0.0159188 -0.0184693 0.0420898 -0.0752925 -0.0450476 -0.0755712 0.0142451 0.123701 -0.156212 0.0355839 0.0979406 0.136353 -0.000874236 0.0767245 0.0604396 0.124278 0.0903184 -0.1378 -0.0151278 -0.0266618 -0.0755586 0.0339345 -0.0533756 -0.0427438 0.0629078 0.0670738 0.0568585 -0.166267 -0.0150703 0.00212798 -0.10315 -0.0631302 0.0705596 0.0487181 0.217157 0.138489 -0.0234379 -0.00984294 -0.038188 0.0360563 0.11479 -0.109828 -0.0534177 -0.0579985 0.0351774 0.134881 0.0963486 -0.0449483 -0.0179954 0.0478352 -0.0654091 -0.0728795 0.0931365 -0.113366 0.0268993 -0.0160473 -0.0520298 0.106273 0.0227262 0.0990415 0.0179751 -0.0356862 0.0760982 0.101304 -0.0650177 -0.252403 -0.0219099 0.036069 -0.035716 0.0785247 0.0308694 -0.0924216 -0.0550845 0.0861053 0.121033 -0.0599319 0.069818 -0.0390502 -0.00481226 -0.0668511 
-0.0532348 -0.087208 -0.0469644 0.0646167 0.0177012 -0.0325055 0.0231969 -0.111468 0.0462163 0.0810623 -0.0574057 0.104158 0.00684664 -0.0612897 -0.0901005 -0.047752 0.00608441 0.0527573 0.00582172 0.0452466 0.0966236 -0.0235324 8.92409e-05 -4.45822e-05 0.0214243 0.091718 0.162321 -0.0509434 -0.0458187 -0.0790072 -0.0716926 -0.0203499 -0.052486 0.0213231 0.134319 -0.130366 -0.102786 0.0339156 0.0520517 0.0879789 -0.0106847 0.137896 0.0559451 -0.0808899 0.0396263 0.162465 -0.130147 -0.0542459 0.0126206 0.0588096 -0.192814 -0.0570644 0.135827 -0.188456 -0.0583074 -0.0420009 0.186817 -0.0443848 -0.0546938 -0.0168589 -0.00657513 -0.0443284 0.0851451 -0.0300306 -0.0703463 -0.0896017 -0.0929678 -0.0044723 -0.0937894 -0.0185019 0.00140467 -0.14493 0.00541955 -0.0274283 0.105393 -0.0516106 -0.0329907 -0.101564 -0.0786067 0.00647226 0.0254759 0.145586 -0.0662282 0.0735657 -0.168925 0.18433 0.0133323 0.0667017 -0.0593527 -0.0971555 -0.0628442 -0.110185 -0.19031 -0.0638774 0.0444432 0.0832086 0.0109 0.0122732 0.211367 0.188193 
-0.00347932 0.0659032 -0.0148045 -0.0247941 0.102189 -0.143836 -0.0353678 0.0180674 -0.0875453 -0.0255575 0.103258 -0.00940939 0.0445828 0.103443 0.0255046 0.103531 0.160272 -0.0215901 -0.0616739 0.0319802 -0.0466684 0.0655408 -0.00496426 -0.0418736 -0.214661 0.00808284 0.0483175 -0.0232135 -0.0151949 0.0234813 -0.00630883 0.00200038 0.10809 -0.0800748 -0.068997 0.039681 0.17577 -0.200182 0.0044659 0.024502 0.0221384 0.0169008 0.00521116 -0.0213446 -0.11943 -0.0194149 -0.132767 -0.0122094 0.0332862 0.177831 -0.0490521 -0.049044 -0.0528788 0.114885 0.00641946 0.0556122 -0.0463097 -0.0272291 0.085099 -0.00731446 0.0630029 -0.0376456 -0.161685 0.280864 0.148572 0.0748843 0.179919 0.0239619 0.0751016 -0.0575463 -0.0594774 0.000696697 -0.018811 0.0336967 0.0925412 0.0488725 0.0929427 -0.0218488 -0.0273929 -0.00515278 -0.094279 -0.0192459 -0.0472228 -0.136028 -0.07083 0.0892989 0.0736165 -0.0213416 -0.0535219 -0.00615613 0.129508 -0.0667891 0.0262565 -0.132133 0.00271915 -0.186095 0.0158256 -0.0841365 -0.0953269 -0.219287 
0.00882552 -0.0810672 -0.0315414 0.0242988 0.121704 -0.056622 -0.00138528 -0.0497459 -0.173676 0.0457642 -0.0400773 -0.0593441 0.0460678 -0.039524 0.0231753 0.0494352 0.00233927 -0.0483089 -0.144758 -0.235889 0.0836146 0.0202839 0.0325637 -0.0483278 0.07306 -0.19667 -0.0397202 -0.0766133 0.124585 -0.167589 0.116219 0.0499287 0.0900182 0.00305087 0.120354 -0.04891 0.0145275 0.12024 -0.237053 0.0989758 0.0696639 -0.285047 0.119163 -0.00195287 -0.00426808 0.0219045 0.126872 0.0368668 -0.017411 -0.020261 0.0639691 -0.164918 -0.023996 -0.112428 0.0841947 0.1067 0.0547741 -0.047647 -0.0788307 -0.105558 0.0579372 -0.0973383 -0.0566957 0.118286 -0.144497 0.00820573 0.025194 0.230346 0.0379109 0.00385054 0.113345 -0.0560921 0.196285 0.172516 0.0759426 -0.0275152 0.0110152 0.0858421 0.0418285 -0.0188845 -0.155464 0.161065 -0.00476779 0.0788959 -0.108968 0.0370939 -0.0634912 -0.00473721 -0.0575744 0.00197803 0.158884 -0.0448157 0.054088 0.170537 -0.140459 -0.0589091 -0.187773 0.0545481 -0.240702 0.100937 
-0.0063936 -0.00438396 -0.145197 0.0109222 0.107502 0.00642331 0.039067 -0.171306 0.0384337 -0.0578752 0.0101759 -0.0928119 -0.0278134 0.060795 0.0854418 0.0582688 -0.106535 0.00768576 0.0269087 -0.0765741 0.0273788 0.0460787 0.0872253 0.0516279 -0.00656531 -0.043756 0.00563889 -0.0667046 -0.102396 0.112775 -0.121163 0.0410399 -0.0605151 0.00166433 -0.0874923 0.130395 0.181151 -0.0575429 -0.130812 0.132687 0.117322 -0.07329 -0.176784 -0.0618384 -0.105111 0.0425074 0.107041 -0.143903 0.0518397 -0.0979325 0.056028 -0.0863324 0.136203 -0.150533 0.0821418 0.194898 -0.0139292 -0.0960111 0.00310873 -0.192362 0.109031 -0.103071 -0.0181695 0.0414495 -0.0722363 0.0946033 0.053969 0.0649396 -0.0831745 -0.0701365 -0.0121852 -0.0829708 0.078733 -0.0124752 0.0256665 -0.308856 -0.0380148 0.0323336 -0.0945977 -0.0954644 0.0515855 0.0687696 -0.108605 0.0850667 -0.0550123 -0.0897641 0.0755614 0.0584922 0.00725795 -0.0950222 0.0763149 -0.00431807 -0.15774 0.0371748 -0.151674 -0.0357257 -0.0301077 0.234253 -0.0284924 0.000564907 
-0.0694014 -0.0591573 -0.152947 -0.157856 0.1633 -0.0911245 0.0011061 0.046538 -0.0725953 -0.0652127 -0.0153944 0.0179595 0.220434 0.184969 0.0171741 0.0351858 0.0506615 -0.0173169 0.169889 0.114343 -0.0446366 -0.192764 -0.0547888 0.138555 0.0686085 -0.106061 0.134063 0.046494 0.048336 -0.0733552 -0.00250045 0.250666 -0.120729 -0.0230202 0.0658289 -0.0778459 0.100573 -0.110624 -0.117612 -0.136286 0.0519758 -0.00605871 0.303737 -0.0436424 0.00266293 -0.122185 -0.00864135 0.0118856 0.0911358 -0.034072 -0.0735764 -0.0351955 0.141268 -0.0366067 -0.146313 0.0955387 -0.00278369 0.00732009 0.136888 -0.0577439 0.231018 -0.0103396 -0.0688181 0.243113 0.0590237 -0.0413952 -0.251333 -0.0094096 0.100479 -0.0933715 0.153705 0.0203576 0.087497 -0.143532 0.0079205 -0.0209549 -0.0563725 0.0779285 0.0228983 0.0203948 0.00967096 0.0436936 0.0841971 0.0407729 -0.0543039 -0.030985 0.0561071 -0.0220215 -0.114109 -0.0646389 0.125701 -0.0592225 0.12951 0.0211531 -0.0855719 0.251316 -0.192264 0.135991 0.030626 -0.130903 
-0.06207 -0.0683116 -0.0281625 -0.18592 0.0840195 -0.0175657 -0.0782458 -0.0177386 0.0507664 0.0892074 0.0422353 0.0417039 -0.0223896 0.0325005 0.051928 -0.173161 -0.167076 -0.0329056 0.0886284 0.0290449 -0.125383 0.010743 0.0776576 -0.0558627 -0.0400958 0.103918 0.0133441 0.0656222 0.110241 -0.039574 -0.0700199 0.00151423 -0.00702749 0.121642 -0.0136617 -0.0460092 0.121073 -0.0208406 -0.194873 -0.197534 0.0552483 0.0587942 0.207086 0.151619 0.0534862 -0.10965 -0.123333 0.0492057 -0.00305767 0.109574 -0.0384876 0.235199 -0.0104513 -0.0793192 -0.083687 0.135555 0.0883537 0.0267356 -0.0987279 -0.109061 -0.0347469 -0.0354222 -0.103068 -0.0113682 0.121432 0.0341872 0.0870625 0.0315589 0.217971 -0.0383148 0.170876 0.0909791 -0.0909798 -0.0516594 0.00851544 -0.035486 0.128888 -0.0960612 -0.0250207 -0.014023 -0.0432883 -0.142193 0.0108199 -0.0426325 -0.117647 -0.0760342 0.0365794 0.0738291 0.0286707 0.170741 -0.004644 0.0311816 0.0785936 -0.0846739 -0.0888594 -0.152065 -0.0333418 0.0188929 0.0826704 -0.097072 
-0.0173809 -0.0769297 -0.112379 -0.0288793 -0.0747298 0.0118175 -0.141603 0.139272 0.0516562 0.0481817 0.0785954 -0.0257721 -0.105114 0.0515664 0.0720483 -0.0992438 0.106278 -0.0614918 -0.0296743 0.0502285 -0.190047 0.080377 0.144716 0.12566 0.00615517 0.0827305 0.0704806 -0.234159 0.0135616 0.0939915 0.0313482 -0.0316517 -0.0496838 -0.0258052 0.154349 0.131845 -0.0896797 -0.0856001 -0.146121 -0.051389 0.0785749 0.102883 -0.0868823 0.0286917 0.0299768 0.0265938 -0.0696153 0.186191 -0.0670601 -0.0781101 -0.048081 0.0189258 0.183835 0.0650176 0.11718 0.15587 -0.113425 -0.120805 0.0860634 0.0412609 0.125056 0.0244168 -0.133865 0.101769 -0.0829245 -0.0345139 -0.0716838 -0.0440772 0.0600178 -0.0644409 0.042897 0.0864718 0.153959 -0.103447 0.0154262 -0.00164064 -0.170863 -0.122674 0.00869698 -0.0224713 -0.180885 0.0105952 -0.114694 -0.0172179 0.00250644 0.203279 -0.0620501 -0.199798 -0.107849 0.145874 -0.00558384 -0.135604 0.0127642 0.123165 0.247776 -0.115131 -0.0877103 -0.137489 0.136804 0.113274 
-0.157012 0.0606825 -0.159533 -0.0213837 0.178352 0.00693525 0.0653078 0.0157015 0.121499 0.0726822 -0.0030823 0.0152266 -0.0979219 0.083931 -0.0949051 0.0507584 -0.170285 -0.103685 -0.128732 -0.143921 0.126343 -0.0202055 0.0328527 -0.0329005 -0.0298777 -0.0615041 0.0550457 -0.199461 0.0635603 0.213414 0.0875753 0.00310446 0.0154907 -0.0933149 -0.0930527 -0.00642184 0.25 -0.0667964 -0.191608 0.0697798 0.0531582 -0.0241535 0.0638832 -0.140515 0.0139772 -0.140747 0.0112862 0.168436 -0.0762104 0.131933 0.0683674 -0.13832 0.21555 -0.107129 0.126528 0.0433075 0.178549 -0.10281 -0.0498071 -0.231282 0.142571 0.170465 -0.0241921 0.00306383 -0.153217 0.0879295 -0.132264 -0.0422577 -0.0960949 0.0862237 0.146489 0.0502076 0.0968864 0.0114896 -0.112631 0.194535 0.0114999 -0.0496828 -0.0403455 0.0586927 0.0987881 0.0483311 -0.0936602 -0.0951073 0.1518 0.260238 0.154311 -0.0589487 0.0546752 -0.0656377 -0.113788 0.00181616 -0.0994693 0.127726 -0.225117 -0.117563 0.00324545 -0.138362 0.0671937 0.0195605 
-0.00858606 -0.0584209 -0.02002 -0.0451337 -0.0353048 0.00661668 0.0826489 0.0285323 0.136212 -0.135065 0.126392 -0.0910466 -0.184314 0.115366 -0.10083 0.0453054 -0.140809 -0.0283399 0.163783 0.00151555 -0.015762 -0.0716948 -0.0552119 -0.0164054 0.079938 0.119519 0.138709 -0.0852833 -0.0429089 0.0301204 -0.0627325 0.00481995 0.047914 0.0636451 -0.0711299 -0.102085 -0.212782 0.0458915 -0.101737 0.11242 -0.0881419 0.0924461 0.00163528 0.101021 -0.00354869 0.108234 0.0772263 0.143518 -0.0155488 -0.0193576 0.0681858 0.177285 0.145683 0.144025 -0.0832168 0.061172 -0.113731 0.0233462 0.0926788 0.0335664 -0.0672707 -0.114188 -0.0718606 0.099578 -0.00234772 0.00919133 0.094431 -0.0847329 -0.0856146 0.0398092 0.0262269 -0.123772 -0.131385 0.218177 -0.0654246 0.0159205 -0.0227888 0.0313904 -0.139573 -0.0476336 -0.106826 0.014762 -0.0448604 -0.0166114 0.140458 0.0726996 -0.0188066 -0.164678 0.116656 -0.0632095 0.164767 0.0443343 -0.0367046 -0.00982435 0.0597209 0.0444319 -0.0298145 0.0748495 -0.0457109 0.0156401 
0.0215188 0.11139 -0.0267758 -0.0012729 0.0924142 0.106553 -0.0406026 -0.00226475 -0.0703393 0.0326752 0.0460117 -0.0546136 0.010541 -0.0867879 -0.017408 -0.191446 -0.125056 0.0919147 0.0403649 -0.00326043 0.0358331 0.0334541 0.0301176 -0.123768 0.0795169 -0.0543608 -0.0131161 0.0843776 0.100367 0.256745 -0.0732642 0.185792 -0.0376757 0.170247 0.17963 0.0495933 -0.00737139 0.0875162 -0.0393052 0.0839079 0.0813081 -0.0636304 -0.029994 0.164345 0.0308458 0.0484034 0.024171 -0.0109782 0.182213 -0.116038 -0.154772 0.026944 0.124166 -0.032361 -0.0675365 0.0511731 -0.0684683 -0.0727246 0.0368897 0.0382379 0.0085383 -0.00376639 -0.115466 0.0835902 0.0945867 0.0538644 0.0370689 0.0335383 -0.148274 -0.00141398 -0.154908 -0.0521685 0.0729811 -0.115249 0.00648198 -0.054196 -0.0434608 -0.214679 -0.0344875 0.136043 0.0116604 -0.022855 0.243467 -0.0432263 0.00375306 0.0574929 0.0798226 0.0223292 0.00721059 -0.177652 -0.043596 0.102024 0.258883 0.0567799 -0.152296 -0.124347 -0.2131 0.0345974 0.14976 0.215656 
0.00851961 0.0571318 -0.0528359 0.100965 -0.0115318 0.0796615 -0.0587234 -0.0707314 0.102196 -0.0251294 0.0134047 -0.202562 0.0103683 -0.0363719 -0.071707 0.0186248 -0.0452326 -0.129835 -0.0225713 -0.109666 -0.0747853 -0.0404663 -0.173295 0.0780052 0.0190139 0.100781 -0.0408484 -0.0766443 -0.0898051 0.0819663 0.134619 0.0788582 -0.0945982 0.0373329 -0.0546516 -0.00985606 0.076815 -1.40022e-05 0.038986 -0.0264676 -0.0244544 0.038561 -0.0608438 0.0606112 0.0692556 -0.089775 -0.0565477 0.082079 -0.0303025 0.139044 -0.0239917 -0.0906081 0.082468 0.089005 0.225362 0.0925042 -0.138295 -0.0497517 0.0491785 -0.12382 0.0845354 0.0159352 -0.138733 0.168731 -0.210603 0.0189669 0.00751113 -0.105545 -0.250154 0.0897408 0.0293942 -0.0402996 -0.195248 -0.117897 0.16397 0.059433 -0.103001 -0.0957773 -0.0160177 -0.0118937 -0.0527772 0.00951112 -0.0154675 0.0175254 0.111396 0.188501 -0.126918 0.18248 -0.016042 -0.152193 -0.0290853 0.118072 0.0274078 0.0725671 -0.153784 -0.033015 -0.0518364 -0.0664942 0.0497966 0.102246 
0.117001 0.0230106 -0.00538386 -0.077303 0.00348004 0.145841 -0.105924 -0.018351 -0.0509527 -0.0175205 -0.0404398 -0.0769508 0.0497366 0.117367 0.0257044 -0.0813656 0.1063 -0.155775 0.00100531 -0.0155091 -0.156163 -0.0978445 0.0269685 0.130106 -0.203434 0.0378381 -0.0321769 0.030797 -0.150545 0.0552868 -0.0129862 0.0427026 -0.0907582 0.073828 0.0774713 0.158507 -0.0101161 -0.0556135 0.0118539 -0.00662193 -0.131097 -0.0904998 -0.0744793 -0.00816859 0.0467231 0.0590282 0.0168598 0.220685 -0.0910947 0.0325444 0.0631396 0.120771 -0.0304079 0.0205767 0.0840738 -0.0261042 0.0145998 -0.0628997 0.11142 0.052038 0.000250663 -0.0396694 0.0800277 0.0370396 -0.219877 0.0331024 0.0501231 0.138552 0.175035 0.00193526 -0.075651 0.125282 -0.00291276 0.0238042 -0.18247 0.046285 0.0336503 0.141965 0.105538 -0.0186611 0.0676562 -0.161997 -0.0686454 -0.0182947 0.0765633 0.133662 0.183867 0.0236774 -0.0683426 0.0675375 -0.14312 -0.0460194 0.0392692 -0.243456 0.0591152 -0.135459 0.0798187 0.0295295 -0.0790174 0.205219 
-0.0984464 0.090792 0.0158159 0.0977992 0.0734752 -0.0382357 -0.11297 0.148931 -0.0886378 -0.0533849 -0.100517 0.0557466 -0.0962507 0.00344399 -0.0648626 0.0697147 0.135993 -0.182316 -0.0833801 0.0613173 0.126404 -0.0666164 0.044248 0.02834 0.0578352 0.0169021 0.0592773 -0.0478901 0.108974 0.120117 0.0542521 0.117222 0.125692 0.0608721 0.0993586 0.0439392 0.00400474 -0.0897267 0.0718145 0.0535452 0.0619989 -0.090219 -0.0617484 -0.084172 0.058386 0.0338859 0.0641418 -0.194292 0.0528834 0.0609362 0.00357268 -0.0165394 -0.128627 -0.0364366 0.0152398 0.248676 0.182269 -0.108637 -0.093743 -0.0305133 0.0704971 0.108153 -0.118784 -0.0698397 0.0571773 0.137779 -0.147968 0.105119 -0.104177 -0.039499 -0.0494582 0.0985999 -0.147963 -0.0140746 -0.0884953 -0.209759 0.0517661 0.138935 0.0748193 0.0569888 -0.092713 -0.0424235 -0.162354 -0.0521883 -0.155079 0.010051 0.0718172 0.0914816 -0.135595 0.104609 0.0291983 -0.0046874 0.0657534 -0.0725316 -0.0352008 0.0615669 -0.0502913 0.00554279 0.0374397 -0.00045928 
-0.00401855 0.0572547 0.0180967 -0.0736629 -0.0265118 0.237569 0.0479831 0.202885 0.00749163 -0.0122182 -0.102373 0.0543862 0.0610869 0.0244001 -0.148973 0.0416227 0.229245 -0.0393183 0.0287803 0.0144089 -0.0926226 -0.163592 -0.0433537 -0.097312 -0.0940512 -0.107027 -0.148944 0.101432 0.0973691 -0.158178 -0.0283391 -0.072184 0.0618002 0.0989505 -0.0688968 -0.0357354 0.0634213 0.0630558 -0.0704541 0.144486 -0.113684 0.0719843 -0.0716036 -0.153599 0.0395861 -0.0809932 -0.0305128 0.0147723 -0.0914538 0.160852 -0.0182251 -0.0399303 0.138993 -0.280903 0.0275827 0.100487 -0.0083409 -0.0433418 -0.0653579 0.0655971 0.0514057 -0.0467205 -0.0285302 -0.0318989 -0.0449668 0.125141 -0.0220506 0.0805026 -0.129231 0.0483158 -0.0601305 -0.11102 0.147984 0.0474071 0.0746858 -0.0083669 -0.115704 0.0389289 -0.0823626 -0.0584557 0.137726 -0.0770844 -0.122939 -0.0798854 -0.00326056 0.120474 -0.030324 0.0222113 -0.0607134 0.170975 0.0428271 0.0622125 -0.0598895 -0.12293 -0.17152 -0.0819974 -0.290785 -0.0434481 -0.111102 -0.0323135 
0.0981273 -0.231134 -0.0238505 0.0518987 0.127059 0.172799 -0.160404 -0.164888 0.0535589 -0.0693306 -0.175934 -0.170979 -0.0334627 -0.0458998 -0.0455149 -0.0801799 0.0477228 -0.0970238 0.0702878 0.146343 0.214386 0.0187913 -0.0382951 0.123378 0.0316608 -0.0338558 0.00156008 -0.103908 -0.110295 0.0305799 -0.198204 -0.0357178 0.035383 -0.068431 -0.0677634 -0.0962581 -0.231537 -0.0228795 0.0608469 0.0373866 0.181489 -0.0486244 0.0568447 -0.234891 -0.049783 0.00863387 0.114781 -0.106972 -0.202729 0.108637 0.0286466 -0.092616 -0.0127013 -0.0564509 0.0384898 -0.0136584 -0.134367 0.0744693 0.110876 -0.109881 0.0448193 0.0708862 0.0902615 0.00723519 -0.173596 0.0252481 -0.0645894 0.0578844 0.0547124 0.0775502 0.0725396 -0.222105 0.185224 -0.0719435 -0.213603 -0.0206275 0.0538856 -0.23395 -0.0250209 -0.0553267 0.14322 0.105349 0.00972412 0.0555628 0.0578973 -0.0322198 0.109117 0.215548 0.000171425 0.0794078 0.121938 0.0987297 0.00896619 -0.019025 0.0157808 -0.118491 -0.130171 0.127256 -0.0600548 0.036992 
0.139921 -0.0422288 0.0360063 -0.0989709 -0.141921 0.0951332 0.11801 -0.0344173 0.0642979 -0.128783 0.0320452 0.0033369 0.152513 -0.0127633 -0.0279291 -0.0329642 0.119762 -0.0416135 0.0747214 0.0559867 -0.170114 0.0542467 0.193083 0.0315434 -0.0171586 0.0171799 0.0377176 -0.102372 0.0145313 0.070723 0.0520014 -0.0946859 0.147555 -0.0831987 0.0516396 -0.134704 0.103204 -0.079956 -0.0736051 -0.215934 0.0980936 0.152052 -0.0181072 0.0528004 0.0894018 -0.0463846 -0.0200083 0.0114235 0.093644 -0.0257231 0.198971 0.0236234 0.0384152 -0.0359566 -0.116037 0.0440586 0.0413816 0.00563963 0.0387517 -0.03518 -0.01163 -0.000987839 -0.0116207 0.0291768 -0.0586983 0.0608717 -0.0700042 -0.0200182 -0.0136386 0.0888491 0.111865 -0.0404445 0.0070539 0.0287466 -0.0260615 -0.137125 -0.00327776 -0.0576484 -0.00819053 0.0612545 0.0484321 -0.0781317 0.0294772 0.0798373 -0.144666 -0.0208346 0.018826 -0.162921 0.0525436 -0.0489405 -0.036448 0.0331615 -0.0257898 0.185495 -0.0649866 -0.0631381 0.119374 -0.0498629 -0.130004 -0.135704 
0.0556162 0.0281734 -0.0197779 0.108968 0.0385605 0.0985718 0.136163 0.0552743 -0.125973 -0.102251 0.0915521 0.0130843 0.0198707 -0.0910926 0.0440822 -0.00802459 -0.0167249 0.136935 -0.0896539 -0.209181 0.0434328 -0.0943567 -0.315974 -0.183704 0.000225817 0.127254 -0.0070003 0.137554 -0.120098 0.0326467 0.0522082 -0.187543 0.150227 -0.115502 -0.231342 0.149661 -0.18953 0.0859881 0.0418452 0.0703947 0.150324 0.00174554 -0.0488312 0.105915 0.0251747 0.138329 -0.0735458 0.185139 0.0282982 -0.159094 0.0260417 -0.0311459 -0.0755739 0.0567525 -0.0460168 -0.0453154 0.177257 0.0851749 0.0295215 0.0944889 -0.0707221 -0.0678676 0.0294514 0.00184599 0.0559282 0.0928026 -0.00799787 0.0575515 0.00499302 -0.102993 0.0910625 0.127574 -0.133993 -0.0559229 0.0452077 0.000942902 0.0513185 -0.118487 0.0178856 -0.0609413 0.111695 0.0315921 0.149576 0.13368 -0.0364103 0.114907 0.0237901 0.00117672 0.0676334 -0.0181749 0.0958725 0.0249945 0.134774 -0.159781 -0.277078 0.0525266 0.171653 -0.00214521 0.00209111 0.0637125 
-0.015825 -0.102707 0.0602452 0.06274 -0.065573 -0.00969078 0.154911 -0.0905509 -0.0313712 -0.0526216 0.147657 0.015872 -0.0702747 -0.12935 -0.0776226 -0.0989178 0.0246098 0.0118678 0.057476 -0.174893 -0.121531 -0.125005 0.065449 -0.008641 0.0483306 0.0568307 -0.113431 0.0192012 0.045253 -0.0123722 0.135127 -0.11851 0.0821174 0.0542561 -0.0165841 -0.0570687 -0.0987008 -0.034804 0.0876441 -0.0988529 0.0433868 -0.000626498 -0.121033 0.101654 -0.142011 -0.0912801 -0.00627907 -0.131084 0.132107 -0.0612002 -0.0989656 -0.0521211 0.0301514 -0.0955495 0.130542 0.0837173 -0.0523162 0.0659327 -0.171071 0.067632 0.0939601 0.189785 -0.0125148 0.0826188 0.0683716 0.0799301 -0.0487942 0.0579087 -0.062058 -0.0937643 0.0312003 -0.0498198 -0.0201744 -0.213281 0.0636758 -0.0803163 0.100661 -0.102846 0.0266737 -0.0230376 -0.0120399 0.0037211 0.155964 -0.0562255 0.111044 0.00552166 0.0272753 -0.109719 -0.0230619 0.0159913 0.11446 0.0678506 0.0268679 0.238364 -0.120815 -0.0447352 -0.0119379 0.169956 0.0504356 0.0128533 
-0.157058 -0.176396 0.161417 -0.0145223 0.040656 0.0275202 0.12017 -0.132902 -0.0271676 -0.10924 -0.157834 -0.132925 -0.0336925 0.114037 -0.0162997 -0.0874172 0.0228622 0.0832723 0.149515 -0.0671038 0.067123 0.0156559 -0.0312738 -0.0780242 -0.0128526 0.0931986 -0.02772 -0.0165359 -0.202962 0.0691175 -0.114235 0.0944324 -0.0590351 -0.0714369 -0.0470993 0.0100554 -0.120106 -0.110407 0.0327293 0.0254579 0.0820569 0.045657 -0.0270466 -0.117182 -0.176804 -0.0108907 -0.0292228 -0.104737 -0.162472 -0.121151 0.118252 -0.0798856 -0.0326575 -0.0458989 0.0313459 -0.168416 -0.111366 0.149588 0.0403168 -0.0865964 0.0506537 0.127176 -0.043313 0.129413 0.0131312 -0.105123 -0.0360227 0.10717 -0.00222961 0.0629164 0.0124777 0.135107 0.1966 -0.119138 0.0862027 0.0496763 0.215283 0.0651137 0.0572795 0.262418 -0.120181 0.182877 -0.0381486 -0.0625794 0.0910145 0.000860971 0.00867145 -0.0916366 -0.063106 -0.0615448 -0.0544479 -0.0146498 -0.00800887 -0.0860846 0.0131598 0.0807985 0.12915 -0.0820654 0.155394 -0.101418 
0.0637739 -0.115422 -0.124792 -0.0719666 -0.0744783 0.175904 -0.00950505 0.199029 0.29302 0.0817527 -0.0821329 0.135457 -0.122555 -0.0889115 -0.0999372 -0.0463333 -0.00555376 0.0573013 -0.0418714 -0.139958 0.0238982 -0.0199364 0.0777222 0.0773279 -0.194104 -0.0418235 0.0159065 -0.0823322 0.0705221 -0.123298 -0.0042101 -0.0327521 0.079417 0.0513388 0.105862 0.0184902 -0.0893395 -0.160947 -0.111384 0.0544973 0.0762215 0.179641 -0.0205243 0.0195263 -0.0390984 -0.00389835 0.137715 -0.195738 0.188446 0.022435 -0.161069 0.140995 -0.00973248 0.0438768 -0.172695 0.201454 -0.0876785 0.0351622 0.170626 0.0465752 -0.0154637 0.0315874 -0.0106019 0.0307257 -0.101628 0.095737 -0.0964612 0.0298446 -0.176672 -0.0171618 0.0370791 -0.0717281 0.0214082 0.0439915 0.0071135 -0.0434951 0.000503507 -0.0287786 -0.0214668 -0.130003 0.0385899 -0.106018 0.0841924 0.112654 0.107334 0.05323 0.0189478 -0.0309243 -0.0675539 -0.0534157 0.0967695 0.0529915 0.12932 -0.0417735 -0.0544054 0.119356 -0.0115911 0.0614631 0.119309 0.126483 
-0.00658921 -0.0155399 -0.0965055 -0.0695225 0.0780344 0.0264661 -0.146907 0.0960481 0.0983374 -0.0893401 0.100064 -0.0828149 0.0270674 -0.100079 -0.0786473 0.0488206 0.0334867 -0.058284 -0.112392 -0.0499541 -0.153696 0.0435558 -0.00599687 0.0420279 0.111481 -0.0806264 -0.0417253 -0.00713094 -0.0204694 0.00879886 0.225133 0.0198556 -0.0168988 -0.0942418 -0.137611 -0.125733 0.139833 0.0118866 -0.0433321 0.13423 0.107881 -0.0454536 0.11659 0.183652 0.0311765 -0.120633 0.101075 0.030615 0.0197651 -0.0300643 0.0173302 -0.0392963 -0.0304739 -0.258827 -0.0485021 0.213173 -0.0344535 -0.0358813 0.0317748 0.16431 0.242173 -0.177405 0.139471 -0.0715566 -0.191904 0.0834034 -0.107395 0.0632522 0.0404671 0.0190004 0.0236682 -0.207764 0.158536 -0.0142501 -0.000898808 0.0149208 0.0137151 0.105259 0.122895 0.187656 0.119767 -0.0347053 0.075424 -0.0393213 0.14074 -0.0264241 0.0124578 -0.0183151 0.0346048 0.185225 0.111542 -0.0268676 -0.00785254 -0.142655 -0.0203299 0.0177474 -0.0258119 0.125343 0.093881 0.0118008 
-0.197333 -0.206369 -0.11508 -0.0877032 -0.137697 0.0692774 -0.0692486 -0.0553852 0.0842331 -0.0142185 0.12924 0.0763639 -0.0853093 -0.0571641 0.0616934 -0.128026 0.148805 0.2455 0.108724 0.0266552 -0.132686 0.0893293 0.0728436 0.148016 0.0841289 -0.0949939 -0.296036 0.0479978 -0.0384824 -0.248545 -0.123962 -0.044358 0.0974227 0.0976163 0.10806 -0.010186 0.0530953 -0.0818257 -0.0942465 0.144006 -0.181845 -0.11678 -0.173307 0.0454628 -0.0223679 0.177344 -0.0404027 -0.19978 -0.0140113 0.110448 0.0168209 -0.183778 -0.141725 -0.00152311 0.105411 0.0458305 -0.0339561 0.115377 0.098472 -0.0999496 0.00359573 0.00270402 0.238916 0.0664882 -0.0365126 -0.000287916 -0.051033 0.107049 0.147036 0.15502 -0.00769651 -0.129098 -0.00260499 -0.149211 0.101888 0.235961 0.0292734 -0.0221113 -0.117915 0.047758 -0.0456624 0.220132 0.163103 -0.238895 0.0827142 0.0420894 0.0588543 -0.00767116 0.238097 -0.0958806 -0.0235141 0.123528 0.0264715 -0.0899147 -0.134427 0.047092 0.224339 -0.0583508 0.102043 0.0369447 
-0.127806 -0.00148813 0.115398 -0.1925 -0.21734 0.0340567 -0.175578 0.290891 0.069526 0.0191375 -0.179904 -0.0519353 -0.092889 0.0581118 -0.135256 0.116836 -0.0164067 0.0330843 0.041239 -0.0307575 -0.0187099 -0.164265 -0.197356 0.0472582 0.0923463 0.137286 0.0849615 0.225604 0.17384 0.0467904 -0.141389 -0.0180481 -0.00542013 0.0465292 0.0165933 -0.0860201 -0.232665 0.0413498 -0.0154424 -0.0304599 -0.0364759 0.0487976 0.0119342 0.0704898 -0.0450393 0.106137 -0.0442622 0.0710714 -0.0768744 -0.162315 0.0165971 0.0920456 -0.0448931 0.103102 -0.00328153 0.123741 0.0593487 -0.0545381 -0.0570375 -0.0706357 -0.0742426 -0.0964081 0.225393 0.0251724 -0.034026 -0.0804992 -0.150841 -0.0233603 -0.00257807 -0.101057 0.0260566 0.0159037 0.198254 0.0005968 0.151843 -0.0583048 0.125429 0.0773674 0.118072 -0.0808785 0.0876537 -0.109566 -0.0283546 -0.0221529 -0.178928 0.0290658 -0.0884453 -0.0306021 -0.0323262 -0.0816603 0.0452233 0.123597 -0.10093 -0.131029 -0.0213647 0.00635187 -0.0187286 0.175133 0.0189198 -0.15232 
-0.067019 0.130066 0.00485976 -0.0224891 0.0187136 -0.00197489 -0.0680927 0.0742432 0.196854 -0.163356 -0.121531 0.115738 0.0605755 -0.141514 -0.151623 0.0885303 0.0854759 -0.0395172 -0.0603349 0.250195 0.185021 0.0597029 -0.014265 0.0188808 0.141137 0.0965513 -0.0154392 0.05477 0.0828987 0.0213898 0.0553043 0.168084 -0.149831 0.121399 -0.0533912 -0.0455243 -0.00719214 0.0111218 -0.0274387 0.0567471 -0.183373 0.196495 0.143046 -0.181206 -0.0120715 -0.00755458 0.0306637 0.212132 0.124285 0.0561369 -0.0383423 -0.239066 0.0761901 0.139512 -0.0288337 0.143197 -0.166307 -0.0365935 0.0373964 -0.0980633 0.129423 -0.0457427 -0.109089 0.130139 -0.0475059 0.0706542 0.0856403 0.0369887 -0.011108 0.0503735 -0.0960154 -0.182991 -0.101835 -0.109412 0.102636 -0.0945543 -0.0732633 0.0968214 0.0421263 -0.0581788 0.081287 -0.0162861 -0.0791453 0.0938568 0.0333131 -0.0774391 0.033972 -0.124542 0.0272106 -0.125029 0.0337344 -0.186368 0.0234514 0.0205715 0.00959491 0.321386 0.153035 -0.124991 0.128705 0.135583 
0.0543478 0.0945225 -0.223997 0.0060649 0.0689279 -0.00160595 -0.0980982 0.104401 -0.0364573 -0.142847 -0.00393952 -0.0590293 0.0767023 0.166879 -0.0636505 -0.0691467 -0.0662932 0.0458003 -0.102237 0.118478 0.0201951 -0.056309 -0.0296022 -0.0257141 -0.03282 -0.066272 -0.102572 -0.0588343 -0.0913778 -0.0443346 0.11588 0.125886 0.0809427 0.0648586 0.0656571 0.134292 0.133637 -0.0511706 0.0653305 0.0768599 -0.00957492 0.0192542 0.0420104 -0.0299892 0.0623433 0.0198228 0.0793272 -0.0116712 -0.132431 -0.073141 -0.0135525 0.126238 -0.0837733 0.0333327 -0.0300359 -0.117103 0.0531023 0.116008 0.0987627 -0.00714663 -0.0110245 -0.00602492 0.0168126 -0.10417 -0.153496 0.0343373 0.0576507 0.092879 0.0306323 -0.123813 0.0830479 -0.275475 0.175033 -0.0553727 0.0316996 0.0460211 -0.175039 -0.109326 -0.042452 0.058568 0.0352424 -0.0554412 0.0595942 0.025148 0.0904022 -0.0917161 -0.103016 -0.129069 -0.119211 0.113786 0.0628086 -0.0221199 -0.056713 0.00714446 0.0304537 -0.0184689 0.142823 -0.0198106 0.00581807 0.145571 
0.0820224 -0.0911004 0.00579607 -0.0431661 -0.0577085 0.041446 -0.13707 -0.16715 -0.0675089 0.0148062 0.0730794 -0.00957373 -0.0210616 -0.101557 0.0885011 -0.00691553 0.0935667 -0.0321027 -0.064594 -0.0483014 0.0179838 -0.0512257 -0.0221294 0.103619 -0.046188 0.172961 0.0237931 -0.255094 -0.104915 0.161142 -0.0655171 0.192979 -0.0638793 -0.0168193 0.03132 -0.00920259 -0.00900271 0.0437975 -0.0136619 -0.0490413 0.0129089 0.0661799 0.045303 0.00873791 -0.150178 0.227438 -0.0282991 -0.0244164 0.0245927 -0.00424904 0.0497055 0.161152 -0.00436012 -0.0204804 -0.0193498 0.106228 -0.07173 -0.0514838 -0.0613405 -0.150466 0.0225814 0.154426 -0.138688 0.0828298 -0.141734 0.174031 0.0133274 0.0140931 0.0886177 -0.0636859 -0.0487862 -0.115325 -0.0971674 -0.167051 -0.0678076 0.0263372 0.208793 0.0454867 -0.115423 -0.0789896 -0.233092 0.120198 -0.0319268 0.185638 -0.070292 0.0937596 -0.0502587 0.139959 -0.0412681 -0.0213284 -0.0312403 -0.212117 -0.0849086 0.0464414 -0.00110739 -0.0336223 0.0413833 0.185872 0.0310759 0.0802036 
-0.157855 -0.067421 0.062119 -0.0658912 -0.210765 0.0340351 0.131719 -0.0301009 0.0113276 -0.00667428 -0.127367 -0.133036 -0.157187 -0.066207 -0.204626 0.102589 0.188323 -0.111606 0.0655013 0.076078 -0.149729 -0.0286976 0.0166597 -0.0437342 -0.23417 -0.0512013 -0.046511 0.107911 0.0512941 -0.0583199 -0.0638398 0.161696 -0.113999 -0.148026 0.000837521 -0.0360559 -0.245774 0.0290141 0.0754762 -0.0356575 -0.00225709 -0.197709 0.0672896 -0.255246 -0.0718468 -0.0670982 -0.0265199 0.0614515 0.0462064 0.00125922 -0.0585032 0.134281 0.0138851 -0.207225 -0.165389 0.0405804 0.000853426 0.0487543 -0.30119 0.0687438 0.0659575 -0.0831189 -0.201833 -0.0129031 -0.0979233 -0.27252 -0.0501537 0.0799595 -0.0295344 -0.0515417 -0.121687 0.190666 -0.0697299 0.0567942 0.144439 0.039191 -0.00744491 0.130359 -0.197504 -0.114096 0.0881501 -0.104658 0.0664373 -0.00314201 -0.108965 0.023264 -0.00728483 -0.0470724 -0.160141 -0.0177622 0.103588 -0.0540365 -0.00393485 -0.0208369 0.00184608 -0.0926022 -0.0435724 -0.205602 0.0676575 0.0145166 
0.0797127 -0.176192 0.0611175 -0.0201524 0.0684979 -0.040908 -0.10192 0.000786847 0.0619513 0.0957389 0.127172 0.0310356 -0.157641 0.0404424 -0.0710474 0.124009 0.017548 0.012133 -0.139924 -0.115206 0.244423 -0.0211591 -0.0865007 -0.0325485 -0.143045 -0.192548 -0.0779067 0.279626 -0.0459458 -0.0941923 0.0638075 0.109259 0.0564013 -0.170851 0.027244 0.145694 -0.0896972 0.000855989 -0.0606954 0.0928307 0.00186768 -0.0991055 0.0779736 0.0233415 -0.0966753 -0.144824 0.0106699 -0.153862 0.103999 0.0860513 -0.0619503 -0.0460568 0.102554 -0.0869397 0.0523922 0.149768 -0.1595 0.132131 0.130067 -0.170661 0.14702 0.114437 -0.072765 0.297573 -0.0191945 0.110919 -0.223109 0.00854461 0.0394968 -0.0936545 -0.0310578 0.10773 0.277186 -0.103205 -0.0153392 0.201257 0.0606172 -0.0261875 -0.051991 -0.199319 -0.0592757 -0.0373079 -0.0663456 -0.00376385 0.0933223 0.128273 -0.0332692 0.137596 -0.0440726 -0.0977069 0.0945994 0.0355766 -0.129478 -0.0380326 0.175661 0.14216 -0.056276 0.0686911 -0.0414661 0.0553922 
-0.00555822 -0.0323015 -0.046002 0.0702771 -0.122098 -0.0657991 0.128554 0.0672008 0.00659112 0.157997 0.0773039 0.0554361 -0.0414698 -0.0161661 -0.0478055 -0.199747 0.152739 0.130792 0.061915 -0.069931 0.166485 0.0675649 -0.113364 -0.121421 -0.0877726 0.0838861 -0.157404 -0.106897 -0.0968291 -0.0670658 0.186462 -0.100949 -0.118481 0.0454542 0.0597558 0.144172 -0.0439743 -0.0655901 -0.00941311 0.0268487 0.187587 -0.0829943 0.0797784 0.00529443 0.0484072 -0.118683 0.12934 0.0360549 -0.0833453 0.0040476 -0.0037104 0.0638604 -0.00199035 -0.05356 0.132521 0.0752667 -0.0104714 0.0736734 -0.150481 -0.135308 0.196623 0.198862 0.153042 -0.117699 0.0783509 -0.0600103 -0.0695993 0.0233179 0.204452 -0.0724465 -0.0499797 0.0743149 -0.098534 0.223273 -0.122162 -0.126333 0.153061 0.0801691 -0.0941844 0.035868 -0.0347583 -0.0604013 0.0377953 -0.0647081 -0.0933852 -0.202441 0.00570585 -0.219036 -0.183751 -0.0276244 0.0162824 -0.00875822 -0.196959 0.0397535 0.11049 -0.0473394 -0.009701 0.116827 -0.164417 0.0887414 
-0.01206 -0.0695016 0.0108485 -0.00690032 0.0783759 -0.138246 -0.0506008 -0.0932437 0.0886865 -0.00523944 -0.0493711 -0.0179956 0.0392532 0.00142185 -0.0417974 0.1081 0.0199794 0.203014 0.203803 0.0519793 -0.0766181 0.0400088 0.0933235 0.066125 0.0550503 0.0708799 -0.0437018 -0.0801868 0.0336781 0.23302 0.0231598 0.0726639 -0.259423 -0.058521 -0.0779428 0.0972482 -0.0214053 0.00797319 -0.0652291 -0.0638388 0.0674415 0.0610782 0.0285728 0.0882335 0.0163175 -0.0607872 0.0100147 -0.0148666 0.0247775 0.223005 0.0618212 -0.00229909 0.0571639 -0.265335 0.139051 0.158706 0.093004 -0.0110272 -0.218306 -0.32 -0.141179 -0.148296 -0.0408073 -0.0244978 0.0789733 -0.102328 -0.0240205 -0.119014 0.0405969 -0.0434835 -0.0479399 0.0825439 0.10051 0.129384 -0.149899 0.0472751 -0.066815 -0.0564688 0.126414 0.192409 0.286868 -0.0507636 0.0546309 -0.0992048 -0.164383 -0.0297323 0.0157367 -0.0612492 -0.14223 -0.142277 0.0271021 -0.0818856 0.0146415 0.0542657 -0.0595962 -0.0869896 0.03325 -0.0734529 0.0635733 -0.0882196 
-0.0602173 0.136532 -0.078532 -0.0448488 -0.00512886 -0.0233979 -0.0408467 -0.110308 -0.0976843 0.164138 0.0346684 0.0640747 0.0230997 0.248998 -0.0557015 -0.0586849 0.126244 0.168088 0.188581 -0.108736 -0.0917692 0.0403231 0.225366 -0.0362515 0.125547 -0.0689392 0.063996 -0.0479523 0.0861447 -0.162952 -0.0769843 0.120549 -0.204729 0.106767 -0.119 -0.0452937 -0.00899623 -0.0415545 -0.142217 -0.00677221 0.0573302 0.00220199 0.14108 0.215826 -0.00795145 0.0742405 0.0947627 -0.111376 -0.217725 0.0876793 -0.0371526 -0.109173 0.0118068 -0.225776 0.130909 -0.0696943 0.0729855 0.0668955 0.0538033 0.0530825 0.17921 0.023587 0.129276 0.177409 -0.00279856 -0.082135 -0.10751 -0.0455537 -0.0344452 -0.138811 -0.0583494 0.0681437 -0.0193415 0.0270205 -0.0851598 -0.0414015 -0.00107438 0.0669643 -0.049249 0.0471035 0.0882342 0.18193 -0.317097 0.00991935 0.0265808 -0.024462 0.0340701 -0.101868 0.0216165 -0.0806635 0.0522045 0.0634896 -0.183346 0.020636 -0.0270376 0.109733 0.0296664 0.00865894 -0.291559 -0.0603026 
-0.0427664 -0.017108 0.123914 0.00441804 0.197001 0.016347 -0.0440133 0.176168 0.168655 0.0677858 0.0232021 -0.0139387 -0.0849307 0.239788 -0.134618 -0.0945176 0.00664401 0.0969755 0.0725297 0.0581949 -0.0484226 0.292944 0.252481 -0.0353481 0.101242 -0.139275 0.169501 -0.170092 0.0366518 0.0250357 -0.133859 -0.162903 -0.0816253 0.0397969 -0.0918185 0.0540779 0.192077 0.00812523 -0.0542528 -0.0555309 0.0671882 0.0602181 0.200659 0.0250752 0.0993957 0.114692 0.0113437 0.0324365 -0.0158906 -0.064525 -0.014948 -0.010622 0.111997 -0.135286 -0.0848973 0.083501 -0.00972353 0.172202 0.0139456 -0.0985639 0.302106 0.232741 0.0435119 -0.0510202 0.20331 0.141644 -0.0570834 0.0761822 -0.223584 -0.113178 -0.0512397 0.0953723 -0.019801 0.189692 0.0714393 -0.101092 -0.00495778 0.0826627 -0.0812448 0.0540065 0.0490904 -0.113076 -0.0167421 0.00104231 -0.136033 0.197053 0.0644334 -0.132287 -0.0623497 0.00395454 0.118334 -0.0857928 0.0369426 0.0605785 -0.260914 -0.0289659 -0.225855 0.0261795 -0.0428089 0.0368123 
